/*
 * Copyright (C) 2021-2024 ETH Zurich and University of Bologna
 *
 * Licensed under a Creative Commons Attribution-ShareAlike
 * 4.0 International License. You should have received a copy 
 * of the license along with this work. 
 * If not, see <http://creativecommons.org/licenses/by-sa/4.0/>.
 * SPDX-License-Identifier: CC-BY-ND-4.0
 */

// Authors: Davide Nadalini, Leonardo Ravaglia, Cristian Cioflan, Thorir Mar Ingolfsson, Lan Mei

#define LEARNING_RATE 0.01f
#define NUM_EPOCHS 1
#define Tin_l0 928
#define Tout_l0 2

#define L0_IN_CH     (Tin_l0)
#define L0_OUT_CH    (Tout_l0)
#define L0_WEIGHTS   (L0_IN_CH*L0_OUT_CH)
PI_L2 float INPUT_VECTOR[L0_IN_CH] = {0.0f, 0.003921568859368563f, 0.0941176563501358f, 0.0f, 0.0f, 0.0f, 0.43529415130615234f, 0.16470588743686676f, 0.0f, 0.0f, 0.14509804546833038f, 0.09803922474384308f, 0.027450982481241226f, 0.0f, 0.10196079313755035f, 0.0f, 0.0f, 0.3333333432674408f, 0.25882354378700256f, 0.007843137718737125f, 0.0f, 0.0f, 0.10588236153125763f, 0.0f, 0.007843137718737125f, 0.33725491166114807f, 0.0f, 0.0f, 0.0f, 0.0f, 0.05490196496248245f, 0.0f, 0.0f, 0.003921568859368563f, 0.29019609093666077f, 0.0f, 0.0f, 0.0f, 0.3803921937942505f, 0.3490196168422699f, 0.09803922474384308f, 0.0f, 0.0f, 0.007843137718737125f, 0.01568627543747425f, 0.0f, 0.1568627506494522f, 0.0f, 0.12156863510608673f, 0.11764706671237946f, 0.2392157018184662f, 0.2705882489681244f, 0.19215688109397888f, 0.0f, 0.0f, 0.019607843831181526f, 0.2705882489681244f, 0.21568629145622253f, 0.0f, 0.0f, 0.0f, 0.1882353127002716f, 0.2039215862751007f, 0.07450980693101883f, 0.0f, 0.1411764770746231f, 0.23137256503105164f, 0.0f, 0.0f, 0.0f, 0.3490196168422699f, 0.3607843220233917f, 0.11372549831867218f, 0.0f, 0.011764707043766975f, 0.0f, 0.12941177189350128f, 0.0f, 0.019607843831181526f, 0.0f, 0.09019608050584793f, 0.4392157196998596f, 0.364705890417099f, 0.09803922474384308f, 0.125490203499794f, 0.0f, 0.30980393290519714f, 0.0f, 0.26274511218070984f, 0.5372549295425415f, 0.0f, 0.0f, 0.0f, 0.24705883860588074f, 0.019607843831181526f, 0.08627451211214066f, 0.0f, 0.3686274588108063f, 0.3019607961177826f, 0.0f, 0.0f, 0.0f, 0.4117647409439087f, 0.2823529541492462f, 0.011764707043766975f, 0.05882353335618973f, 0.10588236153125763f, 0.0f, 0.12156863510608673f, 0.0f, 0.0f, 0.0f, 0.062745101749897f, 0.5254902243614197f, 0.19215688109397888f, 0.007843137718737125f, 0.0f, 0.0f, 0.2352941334247589f, 0.0f, 0.0f, 0.5058823823928833f, 0.06666667014360428f, 0.019607843831181526f, 0.0f, 0.16470588743686676f, 0.011764707043766975f, 0.01568627543747425f, 0.0f, 0.04313725605607033f, 0.32549020648002625f, 0.0f, 0.0f, 0.0f, 0.501960813999176f, 0.32549020648002625f, 0.0f, 0.0f, 0.05882353335618973f, 0.0f, 0.007843137718737125f, 0.0f, 0.0470588281750679f, 0.0f, 0.16078431904315948f, 0.32549020648002625f, 0.19215688109397888f, 0.15294118225574493f, 0.03529411926865578f, 0.0f, 0.13333334028720856f, 0.0f, 0.10588236153125763f, 0.41568630933761597f, 0.0f, 0.0f, 0.0f, 0.12941177189350128f, 0.08235294371843338f, 0.05098039656877518f, 0.0f, 0.2823529541492462f, 0.09019608050584793f, 0.0f, 0.0f, 0.0f, 0.3176470696926117f, 0.22745099663734436f, 0.0f, 0.0f, 0.06666667014360428f, 0.0f, 0.16078431904315948f, 0.0f, 0.0f, 0.0f, 0.0f, 0.5372549295425415f, 0.22745099663734436f, 0.0f, 0.0f, 0.0f, 0.35686275362968445f, 0.0f, 0.0f, 0.529411792755127f, 0.0f, 0.007843137718737125f, 0.0f, 0.019607843831181526f, 0.003921568859368563f, 0.003921568859368563f, 0.0313725508749485f, 0.07058823853731155f, 0.0784313753247261f, 0.0f, 0.0f, 0.0f, 0.4392157196998596f, 0.10588236153125763f, 0.0f, 0.0f, 0.16078431904315948f, 0.05490196496248245f, 0.10196079313755035f, 0.0f, 0.12156863510608673f, 0.0f, 0.0f, 0.4078431725502014f, 0.18039216101169586f, 0.0f, 0.0f, 0.0f, 0.24705883860588074f, 0.0f, 0.0f, 0.3490196168422699f, 0.0f, 0.0f, 0.0f, 0.0f, 0.0f, 0.0f, 0.0f, 0.0f, 0.007843137718737125f, 0.0f, 0.0f, 0.0f, 0.44705885648727417f, 0.13333334028720856f, 0.0f, 0.0f, 0.13333334028720856f, 0.15294118225574493f, 0.0313725508749485f, 0.0f, 0.06666667014360428f, 0.0f, 0.0f, 0.38823533058166504f, 0.2549019753932953f, 0.0f, 0.0f, 0.0f, 0.16078431904315948f, 0.0f, 0.0f, 0.33725491166114807f, 0.0f, 0.0f, 0.0f, 0.0f, 0.0f, 0.0f, 0.0f, 0.0f, 0.0f, 0.0f, 0.0f, 0.0f, 0.43137258291244507f, 0.10196079313755035f, 0.0f, 0.0f, 0.0784313753247261f, 0.10196079313755035f, 0.007843137718737125f, 0.0f, 0.02352941408753395f, 0.0f, 0.0f, 0.35686275362968445f, 0.20000001788139343f, 0.0f, 0.0f, 0.0f, 0.1764705926179886f, 0.0f, 0.0f, 0.2980392277240753f, 0.0f, 0.0f, 0.0f, 0.0f, 0.0f, 0.0f, 0.0f, 0.0f, 0.0f, 0.0f, 0.0f, 0.0f, 0.4274510145187378f, 0.125490203499794f, 0.0f, 0.0f, 0.05098039656877518f, 0.0941176563501358f, 0.02352941408753395f, 0.0f, 0.03529411926865578f, 0.0f, 0.0f, 0.34117648005485535f, 0.21176472306251526f, 0.0f, 0.0f, 0.0f, 0.16470588743686676f, 0.0f, 0.0f, 0.27843138575553894f, 0.0f, 0.0f, 0.0f, 0.0f, 0.003921568859368563f, 0.0f, 0.0f, 0.0f, 0.0f, 0.0f, 0.0f, 0.0f, 0.3607843220233917f, 0.05490196496248245f, 0.0f, 0.0f, 0.03921568766236305f, 0.11764706671237946f, 0.13725490868091583f, 0.0f, 0.007843137718737125f, 0.0f, 0.0f, 0.3176470696926117f, 0.2549019753932953f, 0.0f, 0.0f, 0.0f, 0.2549019753932953f, 0.0f, 0.0f, 0.3607843220233917f, 0.0f, 0.0f, 0.0f, 0.019607843831181526f, 0.003921568859368563f, 0.0f, 0.0f, 0.011764707043766975f, 0.04313725605607033f, 0.0f, 0.0f, 0.0f, 0.38823533058166504f, 0.16862745583057404f, 0.0f, 0.0f, 0.13725490868091583f, 0.0784313753247261f, 0.09803922474384308f, 0.0f, 0.003921568859368563f, 0.0f, 0.0f, 0.38431376218795776f, 0.30980393290519714f, 0.0f, 0.0f, 0.0f, 0.13333334028720856f, 0.0f, 0.0f, 0.33725491166114807f, 0.0f, 0.0f, 0.0f, 0.05098039656877518f, 0.0f, 0.0f, 0.007843137718737125f, 0.04313725605607033f, 0.16470588743686676f, 0.0f, 0.0f, 0.0f, 0.5254902243614197f, 0.26274511218070984f, 0.0f, 0.0f, 0.1764705926179886f, 0.027450982481241226f, 0.0f, 0.0f, 0.05882353335618973f, 0.0f, 0.0f, 0.33725491166114807f, 0.22352942824363708f, 0.07450980693101883f, 0.0f, 0.0f, 0.03529411926865578f, 0.0f, 0.0f, 0.41960787773132324f, 0.0f, 0.0f, 0.0f, 0.08627451211214066f, 0.0f, 0.03529411926865578f, 0.0f, 0.16078431904315948f, 0.11764706671237946f, 0.0f, 0.0f, 0.0f, 0.4901961088180542f, 0.4078431725502014f, 0.0f, 0.003921568859368563f, 0.019607843831181526f, 0.0f, 0.003921568859368563f, 0.0f, 0.0f, 0.0f, 0.0f, 0.4431372880935669f, 0.3137255012989044f, 0.019607843831181526f, 0.0f, 0.0f, 0.14901961386203766f, 0.0f, 0.0f, 0.5098039507865906f, 0.0f, 0.0f, 0.0f, 0.06666667014360428f, 0.011764707043766975f, 0.019607843831181526f, 0.0f, 0.07450980693101883f, 0.12156863510608673f, 0.0f, 0.0f, 0.0f, 0.458823561668396f, 0.3019607961177826f, 0.0f, 0.0f, 0.07450980693101883f, 0.06666667014360428f, 0.07450980693101883f, 0.0f, 0.007843137718737125f, 0.0f, 0.0f, 0.43137258291244507f, 0.3333333432674408f, 0.0f, 0.0f, 0.0f, 0.2549019753932953f, 0.0f, 0.003921568859368563f, 0.5215686559677124f, 0.0f, 0.0f, 0.0f, 0.003921568859368563f, 0.0f, 0.0f, 0.0f, 0.0f, 0.0470588281750679f, 0.0f, 0.0f, 0.0f, 0.4549019932746887f, 0.18039216101169586f, 0.0f, 0.0f, 0.05882353335618973f, 0.13333334028720856f, 0.0470588281750679f, 0.0f, 0.04313725605607033f, 0.0f, 0.0f, 0.3921568989753723f, 0.2823529541492462f, 0.0f, 0.0f, 0.0f, 0.22745099663734436f, 0.0f, 0.0f, 0.40392160415649414f, 0.0f, 0.0f, 0.0f, 0.0f, 0.003921568859368563f, 0.0f, 0.0f, 0.0f, 0.0f, 0.0f, 0.0f, 0.0f, 0.38431376218795776f, 0.05490196496248245f, 0.0f, 0.0f, 0.01568627543747425f, 0.1411764770746231f, 0.07450980693101883f, 0.0f, 0.05490196496248245f, 0.0f, 0.0f, 0.3333333432674408f, 0.24313727021217346f, 0.0f, 0.0f, 0.0f, 0.2392157018184662f, 0.0f, 0.0f, 0.3333333432674408f, 0.0f, 0.0f, 0.0f, 0.0f, 0.003921568859368563f, 0.0f, 0.0f, 0.0f, 0.0f, 0.0f, 0.0f, 0.0f, 0.3921568989753723f, 0.13333334028720856f, 0.0f, 0.0f, 0.1098039299249649f, 0.10196079313755035f, 0.05098039656877518f, 0.0f, 0.02352941408753395f, 0.0f, 0.0f, 0.38431376218795776f, 0.26274511218070984f, 0.0f, 0.0f, 0.0f, 0.2039215862751007f, 0.0f, 0.0f, 0.29019609093666077f, 0.0f, 0.0f, 0.0f, 0.0f, 0.0f, 0.0f, 0.0f, 0.011764707043766975f, 0.02352941408753395f, 0.0f, 0.0f, 0.0f, 0.5333333611488342f, 0.16862745583057404f, 0.0f, 0.0f, 0.15294118225574493f, 0.16078431904315948f, 0.007843137718737125f, 0.0f, 0.07058823853731155f, 0.0313725508749485f, 0.0f, 0.4274510145187378f, 0.24313727021217346f, 0.0f, 0.0f, 0.0f, 0.11372549831867218f, 0.0f, 0.0f, 0.3921568989753723f, 0.0f, 0.0f, 0.0f, 0.0f, 0.011764707043766975f, 0.04313725605607033f, 0.0f, 0.007843137718737125f, 0.0f, 0.0f, 0.0f, 0.0f, 0.4745098352432251f, 0.13725490868091583f, 0.0f, 0.0f, 0.12156863510608673f, 0.14509804546833038f, 0.05098039656877518f, 0.0f, 0.02352941408753395f, 0.007843137718737125f, 0.0f, 0.4431372880935669f, 0.2549019753932953f, 0.0f, 0.0f, 0.0f, 0.15294118225574493f, 0.0f, 0.0f, 0.41568630933761597f, 0.0f, 0.0f, 0.0f, 0.0f, 0.01568627543747425f, 0.02352941408753395f, 0.0f, 0.019607843831181526f, 0.027450982481241226f, 0.0f, 0.0f, 0.0f, 0.40000003576278687f, 0.1411764770746231f, 0.0f, 0.0f, 0.20784315466880798f, 0.15294118225574493f, 0.11764706671237946f, 0.0f, 0.04313725605607033f, 0.027450982481241226f, 0.0f, 0.4431372880935669f, 0.30588236451148987f, 0.0f, 0.0f, 0.0f, 0.12156863510608673f, 0.0f, 0.0f, 0.3529411852359772f, 0.0f, 0.0f, 0.0f, 0.027450982481241226f, 0.0f, 0.0f, 0.027450982481241226f, 0.0f, 0.12941177189350128f, 0.0f, 0.0f, 0.0f, 0.3490196168422699f, 0.10588236153125763f, 0.0f, 0.0f, 0.21568629145622253f, 0.13725490868091583f, 0.10196079313755035f, 0.0f, 0.15294118225574493f, 0.0313725508749485f, 0.003921568859368563f, 0.32549020648002625f, 0.27450981736183167f, 0.003921568859368563f, 0.011764707043766975f, 0.0f, 0.05882353335618973f, 0.0f, 0.011764707043766975f, 0.3333333432674408f, 0.0f, 0.0f, 0.003921568859368563f, 0.011764707043766975f, 0.03529411926865578f, 0.007843137718737125f, 0.007843137718737125f, 0.0941176563501358f, 0.05882353335618973f, 0.0f, 0.0f, 0.0f, 0.3764706254005432f, 0.24705883860588074f, 0.0f, 0.0f, 0.08235294371843338f, 0.0f, 0.05490196496248245f, 0.0f, 0.0313725508749485f, 0.0f, 0.0f, 0.40000003576278687f, 0.2549019753932953f, 0.0f, 0.0f, 0.0f, 0.18431372940540314f, 0.0f, 0.0f, 0.3450980484485626f, 0.0f, 0.0f, 0.0f, 0.0f, 0.07450980693101883f, 0.0f, 0.0f, 0.04313725605607033f, 0.03529411926865578f, 0.0f, 0.0f, 0.0f, 0.4392157196998596f, 0.23137256503105164f, 0.0f, 0.0f, 0.027450982481241226f, 0.0941176563501358f, 0.04313725605607033f, 0.0f, 0.011764707043766975f, 0.0f, 0.0f, 0.38823533058166504f, 0.2549019753932953f, 0.0f, 0.0f, 0.0f, 0.19607844948768616f, 0.0f, 0.0f, 0.4431372880935669f, 0.0f, 0.0f, 0.0f, 0.0f, 0.062745101749897f, 0.027450982481241226f, 0.0f, 0.0f, 0.003921568859368563f, 0.0f, 0.0f, 0.0f, 0.46666669845581055f, 0.13725490868091583f, 0.0f, 0.0f, 0.07450980693101883f, 0.09803922474384308f, 0.0313725508749485f, 0.0f, 0.0f, 0.0f, 0.0f, 0.4117647409439087f, 0.2196078598499298f, 0.0f, 0.0f, 0.0f, 0.20000001788139343f, 0.0f, 0.0f, 0.4078431725502014f, 0.0f, 0.0f, 0.0f, 0.0f, 0.0f, 0.0f, 0.0f, 0.0f, 0.05098039656877518f, 0.0f, 0.0f, 0.0f, 0.4392157196998596f, 0.13333334028720856f, 0.0f, 0.0f, 0.09803922474384308f, 0.09019608050584793f, 0.07450980693101883f, 0.0f, 0.0f, 0.0f, 0.0f, 0.33725491166114807f, 0.21568629145622253f, 0.0f, 0.0f, 0.0f, 0.1725490242242813f, 0.0f, 0.0f, 0.4117647409439087f, 0.0f, 0.0f, 0.0f, 0.07058823853731155f, 0.0f, 0.0f, 0.04313725605607033f, 0.0f, 0.09019608050584793f, 0.0f, 0.0f, 0.0f, 0.3803921937942505f, 0.062745101749897f, 0.0f, 0.0f, 0.2039215862751007f, 0.0784313753247261f, 0.12156863510608673f, 0.0f, 0.0313725508749485f, 0.0f, 0.0f, 0.3529411852359772f, 0.250980406999588f, 0.007843137718737125f, 0.011764707043766975f, 0.0f, 0.1882353127002716f, 0.0f, 0.0f, 0.3686274588108063f, 0.0f, 0.0f, 0.003921568859368563f, 0.1098039299249649f, 0.0f, 0.0f, 0.027450982481241226f, 0.09803922474384308f, 0.09019608050584793f, 0.0f, 0.0f, 0.0f, 0.4078431725502014f, 0.20000001788139343f, 0.0f, 0.0f, 0.19215688109397888f, 0.0f, 0.062745101749897f, 0.0f, 0.011764707043766975f, 0.0f, 0.0f, 0.529411792755127f, 0.32549020648002625f, 0.0f, 0.0f, 0.0f, 0.0784313753247261f, 0.0f, 0.0f, 0.3333333432674408f, 0.0f, 0.0f, 0.0f, 0.10196079313755035f, 0.0f, 0.02352941408753395f, 0.003921568859368563f, 0.09019608050584793f, 0.05098039656877518f, 0.0f, 0.0f, 0.0f, 0.458823561668396f, 0.16078431904315948f, 0.0f, 0.0f, 0.1725490242242813f, 0.0313725508749485f, 0.02352941408753395f, 0.0f, 0.08235294371843338f, 0.0f, 0.0f, 0.46274513006210327f, 0.2039215862751007f, 0.0f, 0.0f, 0.0f, 0.1568627506494522f, 0.0f, 0.0f, 0.33725491166114807f, 0.0f, 0.0f, 0.0f, 0.0f, 0.01568627543747425f, 0.05882353335618973f};
PI_L2 float L0_WEIGHTS_params[L0_WEIGHTS] = {-0.002123124897480011f, -0.0031846873462200165f, 0.027600623667240143f, 0.04777031019330025f, 0.0392778106033802f, -0.03715468570590019f, 0.0074309371411800385f, 0.01167718693614006f, -0.05201655998826027f, 0.0774940550327301f, -0.020169686526060104f, 0.04246249794960022f, 0.06687843799591064f, -0.027600623667240143f, -0.08598655462265015f, 0.050954997539520264f, 0.024415936321020126f, 0.06475530564785004f, 0.07112468779087067f, 0.04033937305212021f, -0.013800311833620071f, -0.016984999179840088f, -0.025477498769760132f, 0.006369374692440033f, 0.01167718693614006f, 0.04989343509078026f, -0.03503156080842018f, 0.07218624651432037f, 0.04989343509078026f, 0.0573243722319603f, 0.0010615624487400055f, -0.04777031019330025f, 0.05944749712944031f, 0.02866218611598015f, -0.013800311833620071f, -0.006369374692440033f, -0.010615624487400055f, -0.03715468570590019f, -0.0785556212067604f, -0.002123124897480011f, -0.053078122437000275f, -0.0053078122437000275f, 0.025477498769760132f, -0.06581687182188034f, -0.0392778106033802f, -0.07430937141180038f, 0.03290843591094017f, 0.016984999179840088f, -0.045647185295820236f, 0.050954997539520264f, -0.0382162481546402f, -0.12101811915636063f, 0.043524060398340225f, 0.013800311833620071f, 0.045647185295820236f, -0.0031846873462200165f, -0.004246249794960022f, -0.01167718693614006f, -0.04777031019330025f, -0.055201247334480286f, -0.026539061218500137f, 0.05201655998826027f, -0.04777031019330025f, -0.006369374692440033f, 0.0392778106033802f, 0.04458562284708023f, 0.0191081240773201f, -0.11783343553543091f, -0.0053078122437000275f, -0.11783343553543091f, 0.03609312325716019f, 0.06581687182188034f, -0.04246249794960022f, -0.04033937305212021f, -0.03078531101346016f, -0.050954997539520264f, 0.0955406203866005f, 0.0074309371411800385f, -0.11783343553543091f, -0.004246249794960022f, -0.04777031019330025f, -0.0053078122437000275f, 0.08598655462265015f, -0.10403311997652054f, 0.07006312161684036f, -0.10615624487400055f, 0.04033937305212021f, -0.1157103031873703f, -0.06050905957818031f, -0.006369374692440033f, -0.08598655462265015f, -0.014861874282360077f, -0.0031846873462200165f, 0.11889499425888062f, -0.02866218611598015f, -0.07430937141180038f, 0.11146405339241028f, 0.11040249466896057f, 0.03078531101346016f, 0.006369374692440033f, 0.03715468570590019f, 0.018046561628580093f, -0.0031846873462200165f, -0.025477498769760132f, -0.12101811915636063f, -0.10615624487400055f, -0.0382162481546402f, -0.022292811423540115f, -0.0955406203866005f, 0.03503156080842018f, 0.10827936977148056f, 0.10615624487400055f, 0.006369374692440033f, -0.04033937305212021f, -0.02335437387228012f, 0.026539061218500137f, -0.0764324963092804f, 0.10190999507904053f, 0.031846873462200165f, -0.04458562284708023f, -0.07961718738079071f, 0.0031846873462200165f, 0.10297155380249023f, -0.04033937305212021f, -0.12632593512535095f, -0.08067874610424042f, 0.022292811423540115f, 0.08386343717575073f, -0.03503156080842018f, 0.0392778106033802f, -0.014861874282360077f, -0.06581687182188034f, 0.08704812079668045f, 0.0010615624487400055f, 0.09978687018156052f, -0.02123124897480011f, -0.12314124405384064f, 0.07006312161684036f, -0.12632593512535095f, 0.03078531101346016f, -0.07112468779087067f, -0.08810968697071075f, 0.0976637452840805f, 0.10615624487400055f, 0.03078531101346016f, -0.08810968697071075f, -0.06900155544281006f, 0.11358718574047089f, -0.10190999507904053f, -0.02335437387228012f, -0.04033937305212021f, 0.06581687182188034f, 0.06157062202692032f, -0.03715468570590019f, -0.0191081240773201f, -0.07112468779087067f, -0.03503156080842018f, -0.10721780359745026f, 0.08067874610424042f, 0.03609312325716019f, -0.09978687018156052f, -0.11040249466896057f, -0.09978687018156052f, 0.04033937305212021f, 0.016984999179840088f, -0.10190999507904053f, -0.014861874282360077f, -0.016984999179840088f, 0.08704812079668045f, -0.0031846873462200165f, 0.04458562284708023f, 0.08917124569416046f, 0.013800311833620071f, 0.05201655998826027f, 0.0053078122437000275f, -0.04033937305212021f, -0.0955406203866005f, -0.02866218611598015f, -0.010615624487400055f, 0.06263218820095062f, -0.06793999671936035f, -0.08067874610424042f, 0.10615624487400055f, -0.055201247334480286f, 0.07112468779087067f, 0.053078122437000275f, -0.1157103031873703f, 0.016984999179840088f, 0.008492499589920044f, 0.053078122437000275f, -0.10190999507904053f, -0.05626280978322029f, -0.015923436731100082f, -0.026539061218500137f, 0.04777031019330025f, -0.050954997539520264f, -0.10403311997652054f, 0.022292811423540115f, 0.04458562284708023f, -0.03078531101346016f, -0.06050905957818031f, -0.03715468570590019f, 0.10509468615055084f, 0.05626280978322029f, 0.0785556212067604f, -0.10827936977148056f, 0.04246249794960022f, -0.12738749384880066f, -0.06687843799591064f, 0.03078531101346016f, 0.09978687018156052f, -0.10721780359745026f, 0.002123124897480011f, -0.09978687018156052f, 0.050954997539520264f, -0.06050905957818031f, -0.09447905421257019f, 0.014861874282360077f, -0.04989343509078026f, 0.05626280978322029f, -0.025477498769760132f, -0.00955406203866005f, 0.02123124897480011f, -0.07218624651432037f, 0.0f, 0.03715468570590019f, 0.08386343717575073f, -0.09341749548912048f, -0.10934093594551086f, -0.008492499589920044f, 0.08280187100172043f, 0.11995655298233032f, -0.050954997539520264f, 0.016984999179840088f, 0.06793999671936035f, -0.055201247334480286f, -0.08704812079668045f, 0.0191081240773201f, 0.0785556212067604f, -0.053078122437000275f, 0.0031846873462200165f, 0.06793999671936035f, -0.02866218611598015f, -0.006369374692440033f, -0.08386343717575073f, 0.008492499589920044f, -0.11783343553543091f, -0.00955406203866005f, 0.0074309371411800385f, 0.08174030482769012f, 0.012738749384880066f, -0.020169686526060104f, -0.12420280277729034f, -0.006369374692440033f, 0.04777031019330025f, -0.033969998359680176f, 0.0382162481546402f, 0.008492499589920044f, 0.06581687182188034f, -0.05626280978322029f, -0.08704812079668045f, -0.11040249466896057f, -0.020169686526060104f, -0.020169686526060104f, -0.03078531101346016f, 0.04033937305212021f, 0.03503156080842018f, 0.09235593676567078f, -0.04777031019330025f, -0.09447905421257019f, 0.04989343509078026f, -0.04777031019330025f, 0.04777031019330025f, -0.013800311833620071f, 0.11889499425888062f, -0.02123124897480011f, -0.07961718738079071f, -0.11040249466896057f, 0.026539061218500137f, -0.0573243722319603f, 0.05944749712944031f, -0.0031846873462200165f, -0.06369374692440033f, -0.09872530400753021f, 0.03715468570590019f, -0.033969998359680176f, -0.10190999507904053f, 0.022292811423540115f, 0.0053078122437000275f, 0.04989343509078026f, -0.04033937305212021f, -0.12101811915636063f, -0.09023280441761017f, -0.02335437387228012f, 0.0966021865606308f, 0.053078122437000275f, -0.0382162481546402f, -0.045647185295820236f, -0.041400935500860214f, 0.07006312161684036f, -0.09129437059164047f, 0.0053078122437000275f, 0.04458562284708023f, 0.07112468779087067f, 0.022292811423540115f, 0.04458562284708023f, -0.06157062202692032f, -0.008492499589920044f, 0.03078531101346016f, -0.041400935500860214f, 0.05201655998826027f, -0.06475530564785004f, -0.0764324963092804f, 0.04883187264204025f, 0.08704812079668045f, -0.05201655998826027f, -0.10190999507904053f, -0.08386343717575073f, 0.020169686526060104f, -0.06369374692440033f, -0.06263218820095062f, -0.06050905957818031f, 0.01167718693614006f, -0.0053078122437000275f, 0.07537093758583069f, -0.02866218611598015f, 0.01167718693614006f, -0.04246249794960022f, -0.03609312325716019f, 0.008492499589920044f, -0.1167718693614006f, 0.0955406203866005f, -0.04989343509078026f, 0.055201247334480286f, 0.06263218820095062f, -0.050954997539520264f, 0.0074309371411800385f, -0.09447905421257019f, -0.134818434715271f, -0.029723748564720154f, -0.02123124897480011f, 0.03503156080842018f, 0.031846873462200165f, 0.008492499589920044f, -0.043524060398340225f, -0.03503156080842018f, -0.05201655998826027f, 0.03078531101346016f, 0.018046561628580093f, -0.13163374364376068f, 0.10297155380249023f, 0.0010615624487400055f, -0.1146487444639206f, -0.06369374692440033f, -0.015923436731100082f, 0.002123124897480011f, 0.04989343509078026f, 0.026539061218500137f, -0.0774940550327301f, -0.04777031019330025f, 0.11040249466896057f, -0.055201247334480286f, -0.0583859346807003f, 0.1146487444639206f, 0.06050905957818031f, -0.010615624487400055f, -0.10190999507904053f, 0.07961718738079071f, -0.025477498769760132f, -0.03609312325716019f, -0.10721780359745026f, -0.09235593676567078f, 0.010615624487400055f, 0.09872530400753021f, 0.03078531101346016f, -0.09235593676567078f, 0.031846873462200165f, -0.002123124897480011f, -0.024415936321020126f, 0.10509468615055084f, 0.11358718574047089f, 0.022292811423540115f, 0.004246249794960022f, 0.012738749384880066f, -0.004246249794960022f, -0.07537093758583069f, -0.12844905257225037f, -0.04777031019330025f, -0.05944749712944031f, -0.03078531101346016f, -0.05626280978322029f, -0.05413968488574028f, 0.03609312325716019f, -0.07537093758583069f, 0.06687843799591064f, 0.12526437640190125f, 0.08386343717575073f, 0.05944749712944031f, -0.055201247334480286f, 0.10934093594551086f, -0.08492499589920044f, -0.05626280978322029f, -0.07006312161684036f, -0.07112468779087067f, 0.11040249466896057f, 0.04883187264204025f, 0.045647185295820236f, 0.0392778106033802f, -0.06793999671936035f, -0.045647185295820236f, 0.025477498769760132f, 0.10297155380249023f, -0.0053078122437000275f, -0.03609312325716019f, -0.029723748564720154f, -0.10721780359745026f, 0.07006312161684036f, -0.07961718738079071f, 0.020169686526060104f, 0.08067874610424042f, -0.012738749384880066f, -0.018046561628580093f, -0.014861874282360077f, -0.08067874610424042f, -0.029723748564720154f, 0.0764324963092804f, 0.09447905421257019f, 0.08598655462265015f, 0.04777031019330025f, 0.04033937305212021f, 0.04883187264204025f, 0.134818434715271f, 0.010615624487400055f, -0.09235593676567078f, -0.04989343509078026f, 0.002123124897480011f, 0.06475530564785004f, 0.08492499589920044f, 0.002123124897480011f, -0.0191081240773201f, 0.0010615624487400055f, 0.004246249794960022f, 0.0392778106033802f, -0.008492499589920044f, 0.033969998359680176f, -0.008492499589920044f, -0.08067874610424042f, 0.004246249794960022f, 0.031846873462200165f, -0.026539061218500137f, 0.0583859346807003f, 0.043524060398340225f, 0.03715468570590019f, -0.0392778106033802f, -0.04458562284708023f, 0.02335437387228012f, 0.06581687182188034f, -0.00955406203866005f, -0.08917124569416046f, 0.043524060398340225f, -0.05626280978322029f, -0.013800311833620071f, 0.09341749548912048f, 0.006369374692440033f, 0.0010615624487400055f, -0.11995655298233032f, 0.00955406203866005f, -0.029723748564720154f, 0.0966021865606308f, 0.12207968533039093f, 0.02866218611598015f, -0.03715468570590019f, 0.06369374692440033f, -0.006369374692440033f, 0.0191081240773201f, 0.10721780359745026f, 0.02866218611598015f, -0.045647185295820236f, 0.07961718738079071f, 0.0f, -0.07537093758583069f, -0.010615624487400055f, -0.10190999507904053f, 0.07006312161684036f, 0.053078122437000275f, 0.05944749712944031f, -0.03503156080842018f, -0.08492499589920044f, 0.055201247334480286f, 0.03715468570590019f, -0.08704812079668045f, -0.004246249794960022f, 0.08280187100172043f, 0.0573243722319603f, 0.0573243722319603f, -0.0764324963092804f, -0.04458562284708023f, 0.00955406203866005f, 0.0f, -0.0053078122437000275f, 0.07112468779087067f, 0.10934093594551086f, 0.00955406203866005f, 0.0f, 0.07218624651432037f, -0.013800311833620071f, -0.06157062202692032f, -0.01167718693614006f, 0.06900155544281006f, -0.04989343509078026f, 0.07006312161684036f, -0.0774940550327301f, 0.0955406203866005f, 0.008492499589920044f, -0.10509468615055084f, 0.033969998359680176f, 0.002123124897480011f, -0.006369374692440033f, -0.002123124897480011f, -0.09129437059164047f, 0.04670874774456024f, 0.027600623667240143f, 0.06475530564785004f, 0.002123124897480011f, 0.018046561628580093f, -0.04883187264204025f, -0.0053078122437000275f, 0.08492499589920044f, -0.08174030482769012f, -0.09447905421257019f, -0.018046561628580093f, 0.09447905421257019f, -0.002123124897480011f, 0.06157062202692032f, 0.006369374692440033f, 0.006369374692440033f, 0.055201247334480286f, -0.0392778106033802f, -0.06475530564785004f, -0.033969998359680176f, -0.08810968697071075f, -0.015923436731100082f, -0.03609312325716019f, 0.06050905957818031f, -0.0774940550327301f, -0.04458562284708023f, 0.015923436731100082f, 0.0583859346807003f, -0.026539061218500137f, 0.08810968697071075f, -0.045647185295820236f, 0.050954997539520264f, -0.025477498769760132f, 0.0031846873462200165f, 0.04989343509078026f, -0.012738749384880066f, 0.06687843799591064f, -0.029723748564720154f, -0.02335437387228012f, 0.04458562284708023f, 0.04033937305212021f, 0.06475530564785004f, -0.0074309371411800385f, 0.07430937141180038f, 0.002123124897480011f, 0.04246249794960022f, -0.03290843591094017f, 0.03503156080842018f, 0.07006312161684036f, 0.08598655462265015f, 0.0774940550327301f, -0.02866218611598015f, -0.04246249794960022f, 0.08810968697071075f, 0.1167718693614006f, -0.018046561628580093f, 0.08067874610424042f, -0.0191081240773201f, 0.08917124569416046f, -0.04246249794960022f, -0.0053078122437000275f, -0.03715468570590019f, -0.050954997539520264f, 0.006369374692440033f, 0.027600623667240143f, -0.04033937305212021f, -0.045647185295820236f, -0.03503156080842018f, -0.016984999179840088f, 0.04670874774456024f, -0.0573243722319603f, -0.008492499589920044f, 0.06793999671936035f, 0.002123124897480011f, 0.04670874774456024f, 0.05944749712944031f, -0.004246249794960022f, -0.022292811423540115f, 0.06050905957818031f, 0.07537093758583069f, 0.0976637452840805f, -0.014861874282360077f, 0.02866218611598015f, -0.02866218611598015f, -0.02335437387228012f, 0.016984999179840088f, 0.0955406203866005f, -0.025477498769760132f, 0.03290843591094017f, -0.04777031019330025f, 0.0774940550327301f, -0.07218624651432037f, 0.02123124897480011f, -0.018046561628580093f, -0.01167718693614006f, 0.002123124897480011f, -0.04246249794960022f, -0.06050905957818031f, -0.0053078122437000275f, -0.012738749384880066f, 0.002123124897480011f, 0.026539061218500137f, -0.025477498769760132f, 0.020169686526060104f, 0.07218624651432037f, -0.020169686526060104f, 0.07218624651432037f, -0.055201247334480286f, 0.010615624487400055f, -0.010615624487400055f, 0.1167718693614006f, -0.053078122437000275f, 0.08598655462265015f, -0.03715468570590019f, -0.00955406203866005f, -0.06687843799591064f, 0.09023280441761017f, -0.04883187264204025f, -0.0774940550327301f, 0.022292811423540115f, 0.07112468779087067f, -0.0191081240773201f, 0.07218624651432037f, 0.002123124897480011f, -0.02123124897480011f, -0.06900155544281006f, 0.06475530564785004f, -0.00955406203866005f, -0.010615624487400055f, -0.04989343509078026f, 0.031846873462200165f, -0.03609312325716019f, -0.008492499589920044f, -0.07537093758583069f, -0.04670874774456024f, 0.06157062202692032f, 0.07218624651432037f, 0.020169686526060104f, 0.08174030482769012f, -0.041400935500860214f, 0.008492499589920044f, 0.05413968488574028f, -0.043524060398340225f, 0.07112468779087067f, 0.04883187264204025f, 0.05626280978322029f, 0.06900155544281006f, 0.0382162481546402f, -0.0191081240773201f, 0.09341749548912048f, -0.010615624487400055f, 0.004246249794960022f, 0.045647185295820236f, -0.03503156080842018f, 0.0392778106033802f, -0.0191081240773201f, -0.031846873462200165f, 0.03715468570590019f, 0.0f, 0.08598655462265015f, 0.0191081240773201f, 0.05626280978322029f, -0.02123124897480011f, -0.0382162481546402f, -0.022292811423540115f, -0.029723748564720154f, -0.04883187264204025f, -0.09023280441761017f, 0.0191081240773201f, 0.029723748564720154f, 0.0774940550327301f, -0.0774940550327301f, -0.0382162481546402f, -0.050954997539520264f, 0.0074309371411800385f, 0.03503156080842018f, 0.07006312161684036f, -0.0053078122437000275f, 0.027600623667240143f, 0.00955406203866005f, 0.010615624487400055f, -0.022292811423540115f, -0.05944749712944031f, 0.0583859346807003f, 0.0392778106033802f, -0.024415936321020126f, 0.06581687182188034f, -0.06050905957818031f, 0.04883187264204025f, 0.025477498769760132f, 0.08492499589920044f, 0.016984999179840088f, -0.010615624487400055f, -0.03503156080842018f, -0.04883187264204025f, -0.07430937141180038f, -0.07537093758583069f, 0.015923436731100082f, -0.022292811423540115f, 0.06900155544281006f, 0.04458562284708023f, 0.04670874774456024f, 0.06263218820095062f, -0.002123124897480011f, -0.016984999179840088f, -0.025477498769760132f, 0.02123124897480011f, 0.031846873462200165f, 0.04033937305212021f, 0.04246249794960022f, 0.06369374692440033f, 0.053078122437000275f, 0.07537093758583069f, 0.024415936321020126f, -0.004246249794960022f, 0.041400935500860214f, -0.05201655998826027f, -0.06369374692440033f, 0.1146487444639206f, 0.055201247334480286f, -0.027600623667240143f, -0.04458562284708023f, -0.010615624487400055f, 0.018046561628580093f, 0.06900155544281006f, -0.03609312325716019f, -0.0573243722319603f, -0.05413968488574028f, 0.0382162481546402f, 0.07112468779087067f, 0.06581687182188034f, 0.031846873462200165f, 0.12632593512535095f, -0.0573243722319603f, 0.022292811423540115f, 0.03715468570590019f, 0.03078531101346016f, 0.0f, 0.02866218611598015f, 0.02123124897480011f, 0.06157062202692032f, 0.008492499589920044f, 0.026539061218500137f, -0.06687843799591064f, 0.050954997539520264f, 0.10934093594551086f, -0.015923436731100082f, 0.041400935500860214f, 0.08386343717575073f, -0.04246249794960022f, 0.0583859346807003f, -0.016984999179840088f, -0.06900155544281006f, 0.04883187264204025f, -0.04670874774456024f, -0.07430937141180038f, 0.08917124569416046f, 0.07537093758583069f, -0.05413968488574028f, -0.0583859346807003f, 0.025477498769760132f, -0.029723748564720154f, 0.004246249794960022f, 0.03715468570590019f, 0.07537093758583069f, 0.026539061218500137f, 0.06050905957818031f, 0.031846873462200165f, 0.020169686526060104f, 0.02123124897480011f, 0.008492499589920044f, 0.07430937141180038f, 0.0074309371411800385f, -0.06050905957818031f, 0.010615624487400055f, -0.06050905957818031f, -0.08810968697071075f, 0.07537093758583069f, 0.018046561628580093f, -0.06369374692440033f, -0.014861874282360077f, 0.05944749712944031f, -0.04458562284708023f, -0.004246249794960022f, -0.016984999179840088f, 0.008492499589920044f, -0.0031846873462200165f, 0.08704812079668045f, -0.05626280978322029f, -0.03609312325716019f, -0.0785556212067604f, -0.0053078122437000275f, -0.06475530564785004f, -0.05413968488574028f, 0.0382162481546402f, -0.04670874774456024f, 0.04670874774456024f, 0.004246249794960022f, -0.04033937305212021f, -0.010615624487400055f, -0.03503156080842018f, 0.024415936321020126f, 0.07430937141180038f, 0.025477498769760132f, 0.033969998359680176f, -0.026539061218500137f, 0.055201247334480286f, -0.04458562284708023f, -0.08067874610424042f, 0.024415936321020126f, 0.08598655462265015f, -0.04670874774456024f, 0.010615624487400055f, 0.05944749712944031f, 0.03715468570590019f, 0.014861874282360077f, 0.03503156080842018f, -0.013800311833620071f, -0.07112468779087067f, 0.016984999179840088f, 0.0583859346807003f, -0.012738749384880066f, -0.033969998359680176f, 0.002123124897480011f, -0.015923436731100082f, 0.08067874610424042f, -0.04989343509078026f, 0.06157062202692032f, 0.04246249794960022f, 0.012738749384880066f, 0.08386343717575073f, -0.041400935500860214f, -0.013800311833620071f, -0.08810968697071075f, 0.008492499589920044f, -0.01167718693614006f, 0.0074309371411800385f, 0.05626280978322029f, 0.013800311833620071f, -0.018046561628580093f, 0.013800311833620071f, 0.006369374692440033f, 0.0976637452840805f, 0.008492499589920044f, -0.07112468779087067f, 0.05626280978322029f, -0.06157062202692032f, 0.0583859346807003f, 0.006369374692440033f, -0.08492499589920044f, 0.04670874774456024f, -0.0392778106033802f, 0.0010615624487400055f, -0.033969998359680176f, 0.016984999179840088f, 0.0774940550327301f, -0.0392778106033802f, 0.041400935500860214f, 0.03290843591094017f, 0.1167718693614006f, -0.04246249794960022f, 0.09235593676567078f, 0.0392778106033802f, -0.0392778106033802f, 0.05944749712944031f, 0.016984999179840088f, 0.055201247334480286f, 0.0010615624487400055f, -0.07218624651432037f, 0.04989343509078026f, 0.06793999671936035f, -0.07537093758583069f, -0.04883187264204025f, 0.002123124897480011f, 0.04670874774456024f, -0.045647185295820236f, -0.029723748564720154f, -0.06793999671936035f, 0.01167718693614006f, -0.12632593512535095f, -0.03609312325716019f, -0.018046561628580093f, 0.09129437059164047f, 0.0392778106033802f, -0.06475530564785004f, 0.03609312325716019f, -0.02866218611598015f, -0.020169686526060104f, -0.020169686526060104f, -0.08386343717575073f, -0.010615624487400055f, 0.05626280978322029f, 0.06900155544281006f, -0.04777031019330025f, 0.022292811423540115f, 0.07218624651432037f, 0.016984999179840088f, 0.041400935500860214f, 0.027600623667240143f, -0.07430937141180038f, 0.08174030482769012f, -0.053078122437000275f, 0.026539061218500137f, -0.0573243722319603f, 0.018046561628580093f, -0.022292811423540115f, -0.06687843799591064f, -0.05413968488574028f, -0.07112468779087067f, 0.06050905957818031f, 0.07218624651432037f, 0.053078122437000275f, -0.013800311833620071f, -0.04246249794960022f, -0.06263218820095062f, 0.08492499589920044f, 0.0074309371411800385f, -0.04989343509078026f, -0.04670874774456024f, 0.020169686526060104f, 0.00955406203866005f, -0.05413968488574028f, 0.00955406203866005f, 0.06050905957818031f, 0.0031846873462200165f, -0.025477498769760132f, 0.03503156080842018f, -0.004246249794960022f, -0.018046561628580093f, 0.014861874282360077f, 0.03715468570590019f, -0.05944749712944031f, -0.03290843591094017f, 0.05413968488574028f, 0.06900155544281006f, -0.018046561628580093f, -0.024415936321020126f, -0.043524060398340225f, -0.03503156080842018f, -0.06687843799591064f, -0.01167718693614006f, 0.0191081240773201f, 0.02123124897480011f, -0.045647185295820236f, -0.024415936321020126f, -0.02123124897480011f, -0.053078122437000275f, -0.024415936321020126f, 0.07537093758583069f, 0.029723748564720154f, -0.09023280441761017f, -0.0053078122437000275f, -0.015923436731100082f, -0.010615624487400055f, -0.0010615624487400055f, -0.024415936321020126f, 0.06050905957818031f, -0.01167718693614006f, -0.033969998359680176f, 0.002123124897480011f, 0.04458562284708023f, -0.0031846873462200165f, 0.04246249794960022f, 0.10084843635559082f, 0.00955406203866005f, -0.05944749712944031f, 0.05626280978322029f, -0.04777031019330025f, 0.09023280441761017f, -0.0031846873462200165f, 0.0392778106033802f, -0.03715468570590019f, 0.050954997539520264f, 0.013800311833620071f, -0.04246249794960022f, 0.016984999179840088f, -0.0031846873462200165f, 0.07218624651432037f, -0.004246249794960022f, -0.0010615624487400055f, 0.0774940550327301f, 0.06263218820095062f, 0.06263218820095062f, -0.07961718738079071f, 0.018046561628580093f, 0.08810968697071075f, 0.050954997539520264f, -0.029723748564720154f, 0.027600623667240143f, -0.07218624651432037f, -0.07537093758583069f, 0.0392778106033802f, -0.02866218611598015f, 0.05944749712944031f, -0.0031846873462200165f, 0.06369374692440033f, 0.033969998359680176f, -0.08917124569416046f, 0.03609312325716019f, -0.016984999179840088f, 0.01167718693614006f, -0.06900155544281006f, -0.014861874282360077f, 0.10190999507904053f, 0.006369374692440033f, 0.026539061218500137f, -0.0392778106033802f, 0.0785556212067604f, 0.11783343553543091f, -0.027600623667240143f, -0.10297155380249023f, -0.06157062202692032f, 0.1337568759918213f, -0.025477498769760132f, -0.0976637452840805f, -0.055201247334480286f, 0.05944749712944031f, 0.0382162481546402f, 0.020169686526060104f, -0.11995655298233032f, 0.06687843799591064f, 0.050954997539520264f, -0.02866218611598015f, 0.08810968697071075f, 0.041400935500860214f, -0.031846873462200165f, -0.045647185295820236f, 0.050954997539520264f, 0.09872530400753021f, -0.03503156080842018f, -0.05944749712944031f, 0.029723748564720154f, 0.10827936977148056f, 0.05413968488574028f, -0.0785556212067604f, 0.06263218820095062f, 0.053078122437000275f, 0.07324780523777008f, 0.045647185295820236f, -0.04033937305212021f, -0.11889499425888062f, -0.018046561628580093f, 0.004246249794960022f, -0.05413968488574028f, -0.008492499589920044f, -0.07430937141180038f, 0.033969998359680176f, -0.08174030482769012f, 0.1337568759918213f, 0.0976637452840805f, -0.043524060398340225f, 0.0010615624487400055f, -0.06581687182188034f, 0.12314124405384064f, 0.08386343717575073f, -0.12314124405384064f, 0.022292811423540115f, -0.1167718693614006f, 0.04246249794960022f, -0.022292811423540115f, -0.055201247334480286f, -0.0382162481546402f, -0.06793999671936035f, 0.13163374364376068f, -0.07218624651432037f, 0.07430937141180038f, -0.10615624487400055f, -0.08810968697071075f, -0.015923436731100082f, 0.08810968697071075f, 0.07430937141180038f, 0.025477498769760132f, 0.002123124897480011f, -0.03609312325716019f, 0.022292811423540115f, 0.08492499589920044f, -0.06475530564785004f, 0.06369374692440033f, 0.03609312325716019f, -0.0382162481546402f, -0.03609312325716019f, -0.05201655998826027f, 0.12420280277729034f, 0.00955406203866005f, 0.10084843635559082f, 0.03715468570590019f, -0.04670874774456024f, 0.08067874610424042f, -0.043524060398340225f, 0.033969998359680176f, -0.1146487444639206f, 0.10827936977148056f, -0.05944749712944031f, 0.03503156080842018f, 0.09235593676567078f, -0.010615624487400055f, -0.07961718738079071f, -0.08598655462265015f, -0.018046561628580093f, -0.06900155544281006f, -0.08174030482769012f, 0.031846873462200165f, -0.031846873462200165f, 0.0010615624487400055f, -0.0010615624487400055f, -0.07324780523777008f, 0.04033937305212021f, 0.0031846873462200165f, 0.05413968488574028f, 0.06475530564785004f, -0.12101811915636063f, 0.06581687182188034f, -0.07537093758583069f, 0.02123124897480011f, 0.024415936321020126f, 0.06157062202692032f, 0.0966021865606308f, -0.1358799934387207f, 0.010615624487400055f, 0.07218624651432037f, 0.04670874774456024f, -0.013800311833620071f, -0.04989343509078026f, -0.04670874774456024f, 0.04033937305212021f, 0.013800311833620071f, -0.029723748564720154f, 0.04246249794960022f, 0.1167718693614006f, -0.05413968488574028f, 0.053078122437000275f, -0.016984999179840088f, 0.02335437387228012f, -0.05201655998826027f, -0.09129437059164047f, 0.10403311997652054f, 0.0573243722319603f, -0.022292811423540115f, -0.002123124897480011f, -0.1167718693614006f, 0.0f, 0.013800311833620071f, -0.07006312161684036f, 0.031846873462200165f, 0.09023280441761017f, 0.0764324963092804f, -0.0392778106033802f, 0.025477498769760132f, 0.04033937305212021f, -0.0976637452840805f, 0.024415936321020126f, 0.05413968488574028f, 0.031846873462200165f, 0.06369374692440033f, 0.02866218611598015f, -0.06050905957818031f, 0.09023280441761017f, -0.0764324963092804f, 0.016984999179840088f, 0.029723748564720154f, 0.07112468779087067f, -0.05413968488574028f, -0.055201247334480286f, -0.03078531101346016f, -0.00955406203866005f, 0.0f, 0.03609312325716019f, -0.02123124897480011f, -0.0392778106033802f, -0.02335437387228012f, 0.029723748564720154f, -0.09978687018156052f, 0.10190999507904053f, -0.07218624651432037f, 0.07537093758583069f, -0.04777031019330025f, -0.050954997539520264f, 0.08598655462265015f, -0.05944749712944031f, -0.0053078122437000275f, -0.03609312325716019f, -0.07537093758583069f, -0.11783343553543091f, 0.050954997539520264f, 0.10827936977148056f, 0.025477498769760132f, 0.012738749384880066f, 0.10297155380249023f, 0.0764324963092804f, -0.09447905421257019f, -0.07537093758583069f, 0.09023280441761017f, -0.0191081240773201f, 0.04989343509078026f, -0.041400935500860214f, -0.07961718738079071f, -0.006369374692440033f, -0.03078531101346016f, -0.0583859346807003f, 0.03503156080842018f, 0.09447905421257019f, 0.04989343509078026f, -0.10297155380249023f, -0.10403311997652054f, 0.0583859346807003f, -0.04033937305212021f, -0.006369374692440033f, 0.04458562284708023f, 0.020169686526060104f, 0.01167718693614006f, -0.10934093594551086f, -0.03290843591094017f, -0.0010615624487400055f, -0.0392778106033802f, -0.016984999179840088f, 0.026539061218500137f, 0.050954997539520264f, -0.026539061218500137f, 0.0010615624487400055f, 0.006369374692440033f, -0.0074309371411800385f, -0.04670874774456024f, -0.11889499425888062f, 0.08917124569416046f, -0.016984999179840088f, 0.0074309371411800385f, 0.031846873462200165f, -0.08598655462265015f, 0.0583859346807003f, 0.10721780359745026f, -0.031846873462200165f, -0.0583859346807003f, -0.11995655298233032f, 0.09235593676567078f, 0.041400935500860214f, 0.02866218611598015f, -0.014861874282360077f, -0.07006312161684036f, 0.05626280978322029f, -0.00955406203866005f, 0.010615624487400055f, -0.00955406203866005f, -0.0382162481546402f, -0.016984999179840088f, 0.010615624487400055f, 0.07218624651432037f, 0.027600623667240143f, -0.050954997539520264f, 0.0764324963092804f, -0.02866218611598015f, 0.06793999671936035f, 0.07112468779087067f, -0.024415936321020126f, -0.033969998359680176f, 0.02123124897480011f, 0.05201655998826027f, 0.03290843591094017f, 0.1326953023672104f, -0.12207968533039093f, -0.055201247334480286f, 0.0976637452840805f, 0.09447905421257019f, 0.04458562284708023f, 0.010615624487400055f, -0.11995655298233032f, -0.03715468570590019f, 0.13163374364376068f, 0.05201655998826027f, -0.11358718574047089f, 0.004246249794960022f, -0.004246249794960022f, -0.08598655462265015f, -0.05201655998826027f, 0.024415936321020126f, -0.0392778106033802f, -0.033969998359680176f, 0.08174030482769012f, -0.004246249794960022f, 0.10403311997652054f, 0.0976637452840805f, -0.07218624651432037f, 0.03078531101346016f, -0.1326953023672104f, 0.09235593676567078f, -0.06581687182188034f, 0.0764324963092804f, 0.10934093594551086f, 0.033969998359680176f, 0.0031846873462200165f, 0.026539061218500137f, 0.0031846873462200165f, 0.0010615624487400055f, -0.08917124569416046f, 0.0010615624487400055f, 0.10084843635559082f, -0.010615624487400055f, -0.0031846873462200165f, -0.045647185295820236f, 0.0764324963092804f, 0.04458562284708023f, -0.07112468779087067f, 0.055201247334480286f, 0.03503156080842018f, 0.027600623667240143f, -0.029723748564720154f, -0.029723748564720154f, 0.027600623667240143f, 0.008492499589920044f, 0.013800311833620071f, 0.055201247334480286f, -0.018046561628580093f, 0.0785556212067604f, 0.020169686526060104f, -0.05201655998826027f, -0.013800311833620071f, 0.0f, -0.0764324963092804f, 0.1157103031873703f, 0.02866218611598015f, -0.0966021865606308f, -0.10721780359745026f, -0.01167718693614006f, 0.0976637452840805f, 0.018046561628580093f, -0.07006312161684036f, 0.06900155544281006f, 0.02335437387228012f, 0.031846873462200165f, -0.022292811423540115f, 0.01167718693614006f, 0.08174030482769012f, 0.008492499589920044f, -0.0774940550327301f, 0.06581687182188034f, -0.08174030482769012f, -0.06900155544281006f, -0.006369374692440033f, -0.08598655462265015f, -0.0785556212067604f, -0.11252561956644058f, 0.045647185295820236f, 0.05626280978322029f, -0.00955406203866005f, -0.04777031019330025f, 0.02123124897480011f, -0.1167718693614006f, 0.0966021865606308f, -0.10190999507904053f, 0.06157062202692032f, 0.08598655462265015f, -0.0764324963092804f, -0.05413968488574028f, -0.07112468779087067f, 0.06793999671936035f, 0.03078531101346016f, -0.018046561628580093f, 0.06263218820095062f, -0.025477498769760132f, 0.041400935500860214f, -0.04883187264204025f, 0.00955406203866005f, 0.013800311833620071f, 0.010615624487400055f, 0.004246249794960022f, -0.06900155544281006f, 0.015923436731100082f, -0.04777031019330025f, 0.0191081240773201f, 0.0774940550327301f, -0.10297155380249023f, 0.015923436731100082f, -0.10190999507904053f, 0.012738749384880066f, 0.06687843799591064f, 0.029723748564720154f, 0.04777031019330025f, -0.006369374692440033f, -0.024415936321020126f, 0.010615624487400055f, -0.025477498769760132f, 0.05944749712944031f, 0.024415936321020126f, 0.041400935500860214f, 0.0074309371411800385f, -0.08492499589920044f, -0.016984999179840088f, -0.07430937141180038f, 0.0031846873462200165f, 0.07112468779087067f, -0.043524060398340225f, 0.0f, -0.0966021865606308f, 0.013800311833620071f, 0.002123124897480011f, 0.02123124897480011f, 0.002123124897480011f, 0.004246249794960022f, -0.0583859346807003f, -0.02335437387228012f, 0.03715468570590019f, -0.022292811423540115f, 0.01167718693614006f, -0.00955406203866005f, -0.05626280978322029f, 0.06157062202692032f, 0.08598655462265015f, 0.06900155544281006f, 0.050954997539520264f, -0.0573243722319603f, -0.04246249794960022f, 0.020169686526060104f, -0.0764324963092804f, 0.025477498769760132f, 0.09447905421257019f, -0.027600623667240143f, -0.045647185295820236f, -0.10509468615055084f, 0.06900155544281006f, -0.10297155380249023f, -0.02335437387228012f, -0.05944749712944031f, 0.04033937305212021f, 0.025477498769760132f, 0.03715468570590019f, -0.012738749384880066f, -0.11995655298233032f, -0.03609312325716019f, -0.012738749384880066f, -0.05626280978322029f, -0.07112468779087067f, 0.02335437387228012f, -0.0053078122437000275f, 0.016984999179840088f, 0.0785556212067604f, -0.06900155544281006f, 0.006369374692440033f, -0.04458562284708023f, -0.024415936321020126f, -0.05413968488574028f, 0.006369374692440033f, 0.0583859346807003f, -0.06050905957818031f, -0.004246249794960022f, -0.09235593676567078f, -0.0573243722319603f, 0.10509468615055084f, -0.002123124897480011f, -0.03290843591094017f, 0.10190999507904053f, -0.06581687182188034f, -0.10297155380249023f, 0.045647185295820236f, 0.002123124897480011f, 0.00955406203866005f, -0.10403311997652054f, 0.0010615624487400055f, -0.07537093758583069f, -0.013800311833620071f, -0.06369374692440033f, 0.008492499589920044f, 0.0053078122437000275f, 0.05944749712944031f, -0.0053078122437000275f, -0.06687843799591064f, -0.03609312325716019f, -0.03290843591094017f, 0.0031846873462200165f, 0.0392778106033802f, 0.0573243722319603f, 0.018046561628580093f, 0.012738749384880066f, 0.033969998359680176f, -0.053078122437000275f, -0.04033937305212021f, 0.05413968488574028f, -0.045647185295820236f, -0.050954997539520264f, -0.012738749384880066f, -0.004246249794960022f, -0.018046561628580093f, -0.07112468779087067f, -0.06369374692440033f, -0.008492499589920044f, 0.02123124897480011f, -0.008492499589920044f, -0.07537093758583069f, -0.11040249466896057f, 0.004246249794960022f, -0.022292811423540115f, 0.04777031019330025f, -0.033969998359680176f, -0.11252561956644058f, 0.07218624651432037f, -0.033969998359680176f, 0.08492499589920044f, -0.04670874774456024f, -0.06793999671936035f, -0.06050905957818031f, -0.010615624487400055f, 0.018046561628580093f, -0.0031846873462200165f, 0.06793999671936035f, -0.013800311833620071f, -0.0031846873462200165f, -0.08810968697071075f, 0.018046561628580093f, 0.041400935500860214f, -0.03609312325716019f, -0.07324780523777008f, 0.04670874774456024f, -0.013800311833620071f, -0.03503156080842018f, -0.05201655998826027f, 0.008492499589920044f, -0.05944749712944031f, 0.027600623667240143f, -0.02866218611598015f, -0.0785556212067604f, -0.04777031019330025f, -0.01167718693614006f, -0.004246249794960022f, 0.0583859346807003f, 0.002123124897480011f, -0.10934093594551086f, -0.010615624487400055f, -0.08386343717575073f, 0.043524060398340225f, -0.020169686526060104f, -0.07006312161684036f, 0.01167718693614006f, -0.06793999671936035f, -0.024415936321020126f, -0.05944749712944031f, 0.029723748564720154f, -0.05626280978322029f, -0.02866218611598015f, -0.02123124897480011f, -0.0583859346807003f, -0.07324780523777008f, 0.024415936321020126f, -0.07537093758583069f, -0.09023280441761017f, 0.05201655998826027f, -0.06475530564785004f, 0.043524060398340225f, -0.07430937141180038f, -0.006369374692440033f, 0.015923436731100082f, 0.04883187264204025f, 0.03609312325716019f, -0.02866218611598015f, -0.013800311833620071f, 0.0966021865606308f, -0.01167718693614006f, -0.0392778106033802f, -0.08704812079668045f, 0.0573243722319603f, -0.02123124897480011f, -0.08067874610424042f, -0.014861874282360077f, 0.02866218611598015f, 0.04989343509078026f, -0.0053078122437000275f, 0.04883187264204025f, -0.07112468779087067f, 0.0f, -0.10721780359745026f, -0.055201247334480286f, -0.06900155544281006f, 0.06475530564785004f, 0.07324780523777008f, -0.0010615624487400055f, -0.0191081240773201f, 0.06475530564785004f, -0.0392778106033802f, 0.03078531101346016f, -0.05201655998826027f, -0.06263218820095062f, 0.029723748564720154f, -0.04033937305212021f, -0.08492499589920044f, -0.04989343509078026f, -0.08704812079668045f, -0.012738749384880066f, 0.08704812079668045f, -0.03503156080842018f, 0.0074309371411800385f, -0.08174030482769012f, -0.01167718693614006f, -0.04777031019330025f, -0.06369374692440033f, 0.07006312161684036f, 0.05201655998826027f, 0.0031846873462200165f, -0.0191081240773201f, 0.002123124897480011f, -0.09872530400753021f, -0.0583859346807003f, 0.06157062202692032f, -0.07324780523777008f, -0.018046561628580093f, -0.010615624487400055f, -0.050954997539520264f, 0.026539061218500137f, 0.03078531101346016f, 0.04246249794960022f, -0.050954997539520264f, 0.0583859346807003f, -0.026539061218500137f, 0.029723748564720154f, -0.0774940550327301f, -0.050954997539520264f, -0.043524060398340225f, -0.014861874282360077f, -0.04246249794960022f, -0.02123124897480011f, 0.03715468570590019f, -0.031846873462200165f, -0.02866218611598015f, 0.014861874282360077f, 0.06793999671936035f, -0.03290843591094017f, 0.027600623667240143f, 0.04033937305212021f, -0.013800311833620071f, -0.06581687182188034f, 0.033969998359680176f, -0.01167718693614006f, -0.0191081240773201f, 0.08067874610424042f, -0.0774940550327301f, -0.03503156080842018f, 0.0031846873462200165f, -0.00955406203866005f, -0.04033937305212021f, -0.0074309371411800385f, 0.04246249794960022f, -0.06157062202692032f, -0.0785556212067604f, 0.08492499589920044f, -0.0774940550327301f, 0.002123124897480011f, -0.055201247334480286f, -0.03609312325716019f, -0.04883187264204025f, -0.04033937305212021f, 0.014861874282360077f, -0.06581687182188034f, 0.06581687182188034f, -0.025477498769760132f, 0.0382162481546402f, -0.04883187264204025f, -0.04777031019330025f, -0.0774940550327301f, 0.09235593676567078f, -0.020169686526060104f, -0.05201655998826027f, -0.0583859346807003f, 0.00955406203866005f, 0.0955406203866005f, -0.002123124897480011f, 0.06475530564785004f, -0.07430937141180038f, -0.0010615624487400055f, 0.043524060398340225f, -0.0053078122437000275f, -0.08598655462265015f, 0.04670874774456024f, 0.05626280978322029f, -0.024415936321020126f, -0.06157062202692032f, 0.04246249794960022f, 0.05201655998826027f, -0.08067874610424042f, -0.025477498769760132f, 0.03609312325716019f, -0.053078122437000275f, -0.06687843799591064f, 0.004246249794960022f, -0.08917124569416046f, 0.05626280978322029f, 0.02335437387228012f, 0.03290843591094017f, 0.03503156080842018f, -0.07430937141180038f, 0.053078122437000275f, 0.055201247334480286f, -0.033969998359680176f, -0.033969998359680176f, -0.022292811423540115f, -0.045647185295820236f, 0.08067874610424042f, -0.07961718738079071f, 0.0191081240773201f, -0.027600623667240143f, -0.004246249794960022f, -0.022292811423540115f, -0.0764324963092804f, -0.08174030482769012f, -0.1146487444639206f, -0.033969998359680176f, 0.07961718738079071f, -0.022292811423540115f, -0.08810968697071075f, -0.06157062202692032f, -0.013800311833620071f, -0.09978687018156052f, 0.06793999671936035f, -0.0191081240773201f, -0.07218624651432037f, 0.00955406203866005f, 0.018046561628580093f, 0.029723748564720154f, 0.010615624487400055f, 0.04883187264204025f, 0.045647185295820236f, -0.04246249794960022f, -0.03078531101346016f, -0.0053078122437000275f, 0.016984999179840088f, -0.027600623667240143f, 0.0f, 0.055201247334480286f, -0.0392778106033802f, -0.0976637452840805f, -0.07430937141180038f, -0.06157062202692032f, 0.004246249794960022f, -0.04033937305212021f, 0.027600623667240143f, 0.014861874282360077f, -0.027600623667240143f, 0.025477498769760132f, -0.014861874282360077f, -0.1146487444639206f, -0.016984999179840088f, -0.0392778106033802f, 0.06369374692440033f, 0.015923436731100082f, -0.010615624487400055f, 0.05201655998826027f, 0.0010615624487400055f, 0.014861874282360077f, 0.03078531101346016f, -0.0764324963092804f, 0.024415936321020126f, -0.06263218820095062f, 0.002123124897480011f, -0.06369374692440033f, 0.01167718693614006f, -0.014861874282360077f, -0.0764324963092804f, -0.06475530564785004f, 0.029723748564720154f, 0.0191081240773201f, -0.0010615624487400055f, -0.02123124897480011f, 0.010615624487400055f, 0.04033937305212021f, 0.0573243722319603f, 0.043524060398340225f, 0.05626280978322029f, -0.03609312325716019f, 0.029723748564720154f, 0.0053078122437000275f, 0.029723748564720154f, 0.053078122437000275f, -0.06687843799591064f, -0.06263218820095062f, -0.0392778106033802f, -0.04458562284708023f, -0.05944749712944031f, -0.04246249794960022f, -0.06793999671936035f, 0.08067874610424042f, -0.0573243722319603f, 0.0573243722319603f, 0.04670874774456024f, -0.08280187100172043f, -0.08174030482769012f, 0.013800311833620071f, 0.02866218611598015f, 0.07430937141180038f, -0.07218624651432037f, -0.0955406203866005f, -0.05201655998826027f, 0.04670874774456024f, -0.08598655462265015f, 0.10615624487400055f, 0.00955406203866005f, -0.0191081240773201f, 0.04883187264204025f, -0.02123124897480011f, -0.02866218611598015f, -0.05413968488574028f, 0.04458562284708023f, -0.033969998359680176f, -0.0392778106033802f, -0.043524060398340225f, 0.00955406203866005f, -0.002123124897480011f, 0.0f, -0.06581687182188034f, 0.06263218820095062f, -0.0074309371411800385f, -0.05201655998826027f, -0.050954997539520264f, 0.04033937305212021f, 0.053078122437000275f, 0.022292811423540115f, -0.016984999179840088f, -0.12632593512535095f, 0.06687843799591064f, -0.002123124897480011f, 0.014861874282360077f, -0.016984999179840088f, 0.020169686526060104f, 0.05201655998826027f, -0.014861874282360077f, -0.11146405339241028f, 0.0583859346807003f, -0.05413968488574028f, 0.04458562284708023f, -0.05201655998826027f, -0.033969998359680176f, 0.06900155544281006f, 0.06157062202692032f, -0.0031846873462200165f, -0.0382162481546402f, -0.06475530564785004f, 0.014861874282360077f, -0.024415936321020126f, 0.01167718693614006f, 0.05413968488574028f, 0.033969998359680176f, -0.033969998359680176f};
PI_L2 float LABEL[L0_OUT_CH] = {1.0f, 0.0f};
PI_L2 float L0_OUT_FW_LAST [L0_OUT_CH] = {0.09513675421476364f, -0.12466081231832504f};
PI_L2 float L0_LOSS_LAST = 1.2809149026870728;
PI_L2 float L0_WEIGHT_GRAD_LAST [L0_WEIGHTS] = {-0.0f, -0.001746159978210926f, -0.041907843202352524f, -0.0f, -0.0f, -0.0f, -0.19382376968860626f, -0.07333871722221375f, -0.0f, -0.0f, -0.06460791826248169f, -0.043654002249240875f, -0.012223119847476482f, -0.0f, -0.04540016129612923f, -0.0f, -0.0f, -0.14842359721660614f, -0.11524655669927597f, -0.003492319956421852f, -0.0f, -0.0f, -0.04714632034301758f, -0.0f, -0.003492319956421852f, -0.1501697599887848f, -0.0f, -0.0f, -0.0f, -0.0f, -0.024446239694952965f, -0.0f, -0.0f, -0.001746159978210926f, -0.12921583652496338f, -0.0f, -0.0f, -0.0f, -0.16937752068042755f, -0.15540823340415955f, -0.043654002249240875f, -0.0f, -0.0f, -0.003492319956421852f, -0.006984639912843704f, -0.0f, -0.06984639912843704f, -0.0f, -0.05413096025586128f, -0.05238480120897293f, -0.10651575773954391f, -0.12048503756523132f, -0.0855618417263031f, -0.0f, -0.0f, -0.00873079989105463f, -0.12048503756523132f, -0.0960388034582138f, -0.0f, -0.0f, -0.0f, -0.08381568640470505f, -0.09080032259225845f, -0.03317704051733017f, -0.0f, -0.06286176294088364f, -0.10302343964576721f, -0.0f, -0.0f, -0.0f, -0.15540823340415955f, -0.1606467217206955f, -0.05063864216208458f, -0.0f, -0.0052384804002940655f, -0.0f, -0.057623278349637985f, -0.0f, -0.00873079989105463f, -0.0f, -0.040161680430173874f, -0.19556991755962372f, -0.16239286959171295f, -0.043654002249240875f, -0.055877119302749634f, -0.0f, -0.13794663548469543f, -0.0f, -0.11699271947145462f, -0.239223912358284f, -0.0f, -0.0f, -0.0f, -0.11000808328390121f, -0.00873079989105463f, -0.038415517657995224f, -0.0f, -0.1641390323638916f, -0.13445432484149933f, -0.0f, -0.0f, -0.0f, -0.18334680795669556f, -0.12572352588176727f, -0.0052384804002940655f, -0.026192400604486465f, -0.04714632034301758f, -0.0f, -0.05413096025586128f, -0.0f, -0.0f, -0.0f, -0.027938559651374817f, -0.23398543894290924f, -0.0855618417263031f, -0.003492319956421852f, -0.0f, -0.0f, -0.10476960241794586f, -0.0f, -0.0f, -0.22525463998317719f, -0.029684720560908318f, -0.00873079989105463f, -0.0f, -0.07333871722221375f, -0.0052384804002940655f, -0.006984639912843704f, -0.0f, -0.019207758828997612f, -0.14493127167224884f, -0.0f, -0.0f, -0.0f, -0.22350847721099854f, -0.14493127167224884f, -0.0f, -0.0f, -0.026192400604486465f, -0.0f, -0.003492319956421852f, -0.0f, -0.020953921601176262f, -0.0f, -0.07159256190061569f, -0.14493127167224884f, -0.0855618417263031f, -0.06810023635625839f, -0.01571544073522091f, -0.0f, -0.059369441121816635f, -0.0f, -0.04714632034301758f, -0.1850929707288742f, -0.0f, -0.0f, -0.0f, -0.057623278349637985f, -0.03666935861110687f, -0.022700080648064613f, -0.0f, -0.12572352588176727f, -0.040161680430173874f, -0.0f, -0.0f, -0.0f, -0.14143896102905273f, -0.10127728432416916f, -0.0f, -0.0f, -0.029684720560908318f, -0.0f, -0.07159256190061569f, -0.0f, -0.0f, -0.0f, -0.0f, -0.239223912358284f, -0.10127728432416916f, -0.0f, -0.0f, -0.0f, -0.15890055894851685f, -0.0f, -0.0f, -0.2357316017150879f, -0.0f, -0.003492319956421852f, -0.0f, -0.00873079989105463f, -0.001746159978210926f, -0.001746159978210926f, -0.013969279825687408f, -0.03143088147044182f, -0.03492319956421852f, -0.0f, -0.0f, -0.0f, -0.19556991755962372f, -0.04714632034301758f, -0.0f, -0.0f, -0.07159256190061569f, -0.024446239694952965f, -0.04540016129612923f, -0.0f, -0.05413096025586128f, -0.0f, -0.0f, -0.1816006451845169f, -0.08032336086034775f, -0.0f, -0.0f, -0.0f, -0.11000808328390121f, -0.0f, -0.0f, -0.15540823340415955f, -0.0f, -0.0f, -0.0f, -0.0f, -0.0f, -0.0f, -0.0f, -0.0f, -0.003492319956421852f, -0.0f, -0.0f, -0.0f, -0.19906224310398102f, -0.059369441121816635f, -0.0f, -0.0f, -0.059369441121816635f, -0.06810023635625839f, -0.013969279825687408f, -0.0f, -0.029684720560908318f, -0.0f, -0.0f, -0.17286984622478485f, -0.11350040137767792f, -0.0f, -0.0f, -0.0f, -0.07159256190061569f, -0.0f, -0.0f, -0.1501697599887848f, -0.0f, -0.0f, -0.0f, -0.0f, -0.0f, -0.0f, -0.0f, -0.0f, -0.0f, -0.0f, -0.0f, -0.0f, -0.1920776069164276f, -0.04540016129612923f, -0.0f, -0.0f, -0.03492319956421852f, -0.04540016129612923f, -0.003492319956421852f, -0.0f, -0.010476960800588131f, -0.0f, -0.0f, -0.15890055894851685f, -0.0890541598200798f, -0.0f, -0.0f, -0.0f, -0.0785771980881691f, -0.0f, -0.0f, -0.13270816206932068f, -0.0f, -0.0f, -0.0f, -0.0f, -0.0f, -0.0f, -0.0f, -0.0f, -0.0f, -0.0f, -0.0f, -0.0f, -0.19033144414424896f, -0.055877119302749634f, -0.0f, -0.0f, -0.022700080648064613f, -0.041907843202352524f, -0.010476960800588131f, -0.0f, -0.01571544073522091f, -0.0f, -0.0f, -0.15191592276096344f, -0.09429264068603516f, -0.0f, -0.0f, -0.0f, -0.07333871722221375f, -0.0f, -0.0f, -0.12397736310958862f, -0.0f, -0.0f, -0.0f, -0.0f, -0.001746159978210926f, -0.0f, -0.0f, -0.0f, -0.0f, -0.0f, -0.0f, -0.0f, -0.1606467217206955f, -0.024446239694952965f, -0.0f, -0.0f, -0.01746159978210926f, -0.05238480120897293f, -0.06111560016870499f, -0.0f, -0.003492319956421852f, -0.0f, -0.0f, -0.14143896102905273f, -0.11350040137767792f, -0.0f, -0.0f, -0.0f, -0.11350040137767792f, -0.0f, -0.0f, -0.1606467217206955f, -0.0f, -0.0f, -0.0f, -0.00873079989105463f, -0.001746159978210926f, -0.0f, -0.0f, -0.0052384804002940655f, -0.019207758828997612f, -0.0f, -0.0f, -0.0f, -0.17286984622478485f, -0.0750848799943924f, -0.0f, -0.0f, -0.06111560016870499f, -0.03492319956421852f, -0.043654002249240875f, -0.0f, -0.001746159978210926f, -0.0f, -0.0f, -0.1711236834526062f, -0.13794663548469543f, -0.0f, -0.0f, -0.0f, -0.059369441121816635f, -0.0f, -0.0f, -0.1501697599887848f, -0.0f, -0.0f, -0.0f, -0.022700080648064613f, -0.0f, -0.0f, -0.003492319956421852f, -0.019207758828997612f, -0.07333871722221375f, -0.0f, -0.0f, -0.0f, -0.23398543894290924f, -0.11699271947145462f, -0.0f, -0.0f, -0.0785771980881691f, -0.012223119847476482f, -0.0f, -0.0f, -0.026192400604486465f, -0.0f, -0.0f, -0.1501697599887848f, -0.09953112155199051f, -0.03317704051733017f, -0.0f, -0.0f, -0.01571544073522091f, -0.0f, -0.0f, -0.18683911859989166f, -0.0f, -0.0f, -0.0f, -0.038415517657995224f, -0.0f, -0.01571544073522091f, -0.0f, -0.07159256190061569f, -0.05238480120897293f, -0.0f, -0.0f, -0.0f, -0.21827000379562378f, -0.1816006451845169f, -0.0f, -0.001746159978210926f, -0.00873079989105463f, -0.0f, -0.001746159978210926f, -0.0f, -0.0f, -0.0f, -0.0f, -0.19731608033180237f, -0.13969279825687408f, -0.00873079989105463f, -0.0f, -0.0f, -0.06635408103466034f, -0.0f, -0.0f, -0.22700080275535583f, -0.0f, -0.0f, -0.0f, -0.029684720560908318f, -0.0052384804002940655f, -0.00873079989105463f, -0.0f, -0.03317704051733017f, -0.05413096025586128f, -0.0f, -0.0f, -0.0f, -0.20430071651935577f, -0.13445432484149933f, -0.0f, -0.0f, -0.03317704051733017f, -0.029684720560908318f, -0.03317704051733017f, -0.0f, -0.003492319956421852f, -0.0f, -0.0f, -0.1920776069164276f, -0.14842359721660614f, -0.0f, -0.0f, -0.0f, -0.11350040137767792f, -0.0f, -0.001746159978210926f, -0.2322392761707306f, -0.0f, -0.0f, -0.0f, -0.001746159978210926f, -0.0f, -0.0f, -0.0f, -0.0f, -0.020953921601176262f, -0.0f, -0.0f, -0.0f, -0.20255456864833832f, -0.08032336086034775f, -0.0f, -0.0f, -0.026192400604486465f, -0.059369441121816635f, -0.020953921601176262f, -0.0f, -0.019207758828997612f, -0.0f, -0.0f, -0.1746160089969635f, -0.12572352588176727f, -0.0f, -0.0f, -0.0f, -0.10127728432416916f, -0.0f, -0.0f, -0.17985448241233826f, -0.0f, -0.0f, -0.0f, -0.0f, -0.001746159978210926f, -0.0f, -0.0f, -0.0f, -0.0f, -0.0f, -0.0f, -0.0f, -0.1711236834526062f, -0.024446239694952965f, -0.0f, -0.0f, -0.006984639912843704f, -0.06286176294088364f, -0.03317704051733017f, -0.0f, -0.024446239694952965f, -0.0f, -0.0f, -0.14842359721660614f, -0.10826192051172256f, -0.0f, -0.0f, -0.0f, -0.10651575773954391f, -0.0f, -0.0f, -0.14842359721660614f, -0.0f, -0.0f, -0.0f, -0.0f, -0.001746159978210926f, -0.0f, -0.0f, -0.0f, -0.0f, -0.0f, -0.0f, -0.0f, -0.1746160089969635f, -0.059369441121816635f, -0.0f, -0.0f, -0.04889247938990593f, -0.04540016129612923f, -0.022700080648064613f, -0.0f, -0.010476960800588131f, -0.0f, -0.0f, -0.1711236834526062f, -0.11699271947145462f, -0.0f, -0.0f, -0.0f, -0.09080032259225845f, -0.0f, -0.0f, -0.12921583652496338f, -0.0f, -0.0f, -0.0f, -0.0f, -0.0f, -0.0f, -0.0f, -0.0052384804002940655f, -0.010476960800588131f, -0.0f, -0.0f, -0.0f, -0.23747776448726654f, -0.0750848799943924f, -0.0f, -0.0f, -0.06810023635625839f, -0.07159256190061569f, -0.003492319956421852f, -0.0f, -0.03143088147044182f, -0.013969279825687408f, -0.0f, -0.19033144414424896f, -0.10826192051172256f, -0.0f, -0.0f, -0.0f, -0.05063864216208458f, -0.0f, -0.0f, -0.1746160089969635f, -0.0f, -0.0f, -0.0f, -0.0f, -0.0052384804002940655f, -0.019207758828997612f, -0.0f, -0.003492319956421852f, -0.0f, -0.0f, -0.0f, -0.0f, -0.21128536760807037f, -0.06111560016870499f, -0.0f, -0.0f, -0.05413096025586128f, -0.06460791826248169f, -0.022700080648064613f, -0.0f, -0.010476960800588131f, -0.003492319956421852f, -0.0f, -0.19731608033180237f, -0.11350040137767792f, -0.0f, -0.0f, -0.0f, -0.06810023635625839f, -0.0f, -0.0f, -0.1850929707288742f, -0.0f, -0.0f, -0.0f, -0.0f, -0.006984639912843704f, -0.010476960800588131f, -0.0f, -0.00873079989105463f, -0.012223119847476482f, -0.0f, -0.0f, -0.0f, -0.1781083196401596f, -0.06286176294088364f, -0.0f, -0.0f, -0.0925464853644371f, -0.06810023635625839f, -0.05238480120897293f, -0.0f, -0.019207758828997612f, -0.012223119847476482f, -0.0f, -0.19731608033180237f, -0.13620047271251678f, -0.0f, -0.0f, -0.0f, -0.05413096025586128f, -0.0f, -0.0f, -0.1571543961763382f, -0.0f, -0.0f, -0.0f, -0.012223119847476482f, -0.0f, -0.0f, -0.012223119847476482f, -0.0f, -0.057623278349637985f, -0.0f, -0.0f, -0.0f, -0.15540823340415955f, -0.04714632034301758f, -0.0f, -0.0f, -0.0960388034582138f, -0.06111560016870499f, -0.04540016129612923f, -0.0f, -0.06810023635625839f, -0.013969279825687408f, -0.001746159978210926f, -0.14493127167224884f, -0.12223120033740997f, -0.001746159978210926f, -0.0052384804002940655f, -0.0f, -0.026192400604486465f, -0.0f, -0.0052384804002940655f, -0.14842359721660614f, -0.0f, -0.0f, -0.001746159978210926f, -0.0052384804002940655f, -0.01571544073522091f, -0.003492319956421852f, -0.003492319956421852f, -0.041907843202352524f, -0.026192400604486465f, -0.0f, -0.0f, -0.0f, -0.1676313728094101f, -0.11000808328390121f, -0.0f, -0.0f, -0.03666935861110687f, -0.0f, -0.024446239694952965f, -0.0f, -0.013969279825687408f, -0.0f, -0.0f, -0.1781083196401596f, -0.11350040137767792f, -0.0f, -0.0f, -0.0f, -0.0820695161819458f, -0.0f, -0.0f, -0.1536620706319809f, -0.0f, -0.0f, -0.0f, -0.0f, -0.03317704051733017f, -0.0f, -0.0f, -0.019207758828997612f, -0.01571544073522091f, -0.0f, -0.0f, -0.0f, -0.19556991755962372f, -0.10302343964576721f, -0.0f, -0.0f, -0.012223119847476482f, -0.041907843202352524f, -0.019207758828997612f, -0.0f, -0.0052384804002940655f, -0.0f, -0.0f, -0.17286984622478485f, -0.11350040137767792f, -0.0f, -0.0f, -0.0f, -0.08730800449848175f, -0.0f, -0.0f, -0.19731608033180237f, -0.0f, -0.0f, -0.0f, -0.0f, -0.027938559651374817f, -0.012223119847476482f, -0.0f, -0.0f, -0.001746159978210926f, -0.0f, -0.0f, -0.0f, -0.20779304206371307f, -0.06111560016870499f, -0.0f, -0.0f, -0.03317704051733017f, -0.043654002249240875f, -0.013969279825687408f, -0.0f, -0.0f, -0.0f, -0.0f, -0.18334680795669556f, -0.09778495877981186f, -0.0f, -0.0f, -0.0f, -0.0890541598200798f, -0.0f, -0.0f, -0.1816006451845169f, -0.0f, -0.0f, -0.0f, -0.0f, -0.0f, -0.0f, -0.0f, -0.0f, -0.022700080648064613f, -0.0f, -0.0f, -0.0f, -0.19556991755962372f, -0.059369441121816635f, -0.0f, -0.0f, -0.043654002249240875f, -0.040161680430173874f, -0.03317704051733017f, -0.0f, -0.0f, -0.0f, -0.0f, -0.1501697599887848f, -0.0960388034582138f, -0.0f, -0.0f, -0.0f, -0.07683103531599045f, -0.0f, -0.0f, -0.18334680795669556f, -0.0f, -0.0f, -0.0f, -0.03143088147044182f, -0.0f, -0.0f, -0.019207758828997612f, -0.0f, -0.040161680430173874f, -0.0f, -0.0f, -0.0f, -0.16937752068042755f, -0.027938559651374817f, -0.0f, -0.0f, -0.09080032259225845f, -0.03492319956421852f, -0.05413096025586128f, -0.0f, -0.013969279825687408f, -0.0f, -0.0f, -0.1571543961763382f, -0.11175423860549927f, -0.003492319956421852f, -0.0052384804002940655f, -0.0f, -0.08381568640470505f, -0.0f, -0.0f, -0.1641390323638916f, -0.0f, -0.0f, -0.001746159978210926f, -0.04889247938990593f, -0.0f, -0.0f, -0.012223119847476482f, -0.043654002249240875f, -0.040161680430173874f, -0.0f, -0.0f, -0.0f, -0.1816006451845169f, -0.0890541598200798f, -0.0f, -0.0f, -0.0855618417263031f, -0.0f, -0.027938559651374817f, -0.0f, -0.0052384804002940655f, -0.0f, -0.0f, -0.2357316017150879f, -0.14493127167224884f, -0.0f, -0.0f, -0.0f, -0.03492319956421852f, -0.0f, -0.0f, -0.14842359721660614f, -0.0f, -0.0f, -0.0f, -0.04540016129612923f, -0.0f, -0.010476960800588131f, -0.001746159978210926f, -0.040161680430173874f, -0.022700080648064613f, -0.0f, -0.0f, -0.0f, -0.20430071651935577f, -0.07159256190061569f, -0.0f, -0.0f, -0.07683103531599045f, -0.013969279825687408f, -0.010476960800588131f, -0.0f, -0.03666935861110687f, -0.0f, -0.0f, -0.20604687929153442f, -0.09080032259225845f, -0.0f, -0.0f, -0.0f, -0.06984639912843704f, -0.0f, -0.0f, -0.1501697599887848f, -0.0f, -0.0f, -0.0f, -0.0f, -0.006984639912843704f, -0.026192400604486465f, 0.0f, 0.001746159978210926f, 0.041907843202352524f, 0.0f, 0.0f, 0.0f, 0.19382376968860626f, 0.07333871722221375f, 0.0f, 0.0f, 0.06460791826248169f, 0.043654002249240875f, 0.012223119847476482f, 0.0f, 0.04540016129612923f, 0.0f, 0.0f, 0.14842359721660614f, 0.11524655669927597f, 0.003492319956421852f, 0.0f, 0.0f, 0.04714632034301758f, 0.0f, 0.003492319956421852f, 0.1501697599887848f, 0.0f, 0.0f, 0.0f, 0.0f, 0.024446239694952965f, 0.0f, 0.0f, 0.001746159978210926f, 0.12921583652496338f, 0.0f, 0.0f, 0.0f, 0.16937752068042755f, 0.15540823340415955f, 0.043654002249240875f, 0.0f, 0.0f, 0.003492319956421852f, 0.006984639912843704f, 0.0f, 0.06984639912843704f, 0.0f, 0.05413096025586128f, 0.05238480120897293f, 0.10651575773954391f, 0.12048503756523132f, 0.0855618417263031f, 0.0f, 0.0f, 0.00873079989105463f, 0.12048503756523132f, 0.0960388034582138f, 0.0f, 0.0f, 0.0f, 0.08381568640470505f, 0.09080032259225845f, 0.03317704051733017f, 0.0f, 0.06286176294088364f, 0.10302343964576721f, 0.0f, 0.0f, 0.0f, 0.15540823340415955f, 0.1606467217206955f, 0.05063864216208458f, 0.0f, 0.0052384804002940655f, 0.0f, 0.057623278349637985f, 0.0f, 0.00873079989105463f, 0.0f, 0.040161680430173874f, 0.19556991755962372f, 0.16239286959171295f, 0.043654002249240875f, 0.055877119302749634f, 0.0f, 0.13794663548469543f, 0.0f, 0.11699271947145462f, 0.239223912358284f, 0.0f, 0.0f, 0.0f, 0.11000808328390121f, 0.00873079989105463f, 0.038415517657995224f, 0.0f, 0.1641390323638916f, 0.13445432484149933f, 0.0f, 0.0f, 0.0f, 0.18334680795669556f, 0.12572352588176727f, 0.0052384804002940655f, 0.026192400604486465f, 0.04714632034301758f, 0.0f, 0.05413096025586128f, 0.0f, 0.0f, 0.0f, 0.027938559651374817f, 0.23398543894290924f, 0.0855618417263031f, 0.003492319956421852f, 0.0f, 0.0f, 0.10476960241794586f, 0.0f, 0.0f, 0.22525463998317719f, 0.029684720560908318f, 0.00873079989105463f, 0.0f, 0.07333871722221375f, 0.0052384804002940655f, 0.006984639912843704f, 0.0f, 0.019207758828997612f, 0.14493127167224884f, 0.0f, 0.0f, 0.0f, 0.22350847721099854f, 0.14493127167224884f, 0.0f, 0.0f, 0.026192400604486465f, 0.0f, 0.003492319956421852f, 0.0f, 0.020953921601176262f, 0.0f, 0.07159256190061569f, 0.14493127167224884f, 0.0855618417263031f, 0.06810023635625839f, 0.01571544073522091f, 0.0f, 0.059369441121816635f, 0.0f, 0.04714632034301758f, 0.1850929707288742f, 0.0f, 0.0f, 0.0f, 0.057623278349637985f, 0.03666935861110687f, 0.022700080648064613f, 0.0f, 0.12572352588176727f, 0.040161680430173874f, 0.0f, 0.0f, 0.0f, 0.14143896102905273f, 0.10127728432416916f, 0.0f, 0.0f, 0.029684720560908318f, 0.0f, 0.07159256190061569f, 0.0f, 0.0f, 0.0f, 0.0f, 0.239223912358284f, 0.10127728432416916f, 0.0f, 0.0f, 0.0f, 0.15890055894851685f, 0.0f, 0.0f, 0.2357316017150879f, 0.0f, 0.003492319956421852f, 0.0f, 0.00873079989105463f, 0.001746159978210926f, 0.001746159978210926f, 0.013969279825687408f, 0.03143088147044182f, 0.03492319956421852f, 0.0f, 0.0f, 0.0f, 0.19556991755962372f, 0.04714632034301758f, 0.0f, 0.0f, 0.07159256190061569f, 0.024446239694952965f, 0.04540016129612923f, 0.0f, 0.05413096025586128f, 0.0f, 0.0f, 0.1816006451845169f, 0.08032336086034775f, 0.0f, 0.0f, 0.0f, 0.11000808328390121f, 0.0f, 0.0f, 0.15540823340415955f, 0.0f, 0.0f, 0.0f, 0.0f, 0.0f, 0.0f, 0.0f, 0.0f, 0.003492319956421852f, 0.0f, 0.0f, 0.0f, 0.19906224310398102f, 0.059369441121816635f, 0.0f, 0.0f, 0.059369441121816635f, 0.06810023635625839f, 0.013969279825687408f, 0.0f, 0.029684720560908318f, 0.0f, 0.0f, 0.17286984622478485f, 0.11350040137767792f, 0.0f, 0.0f, 0.0f, 0.07159256190061569f, 0.0f, 0.0f, 0.1501697599887848f, 0.0f, 0.0f, 0.0f, 0.0f, 0.0f, 0.0f, 0.0f, 0.0f, 0.0f, 0.0f, 0.0f, 0.0f, 0.1920776069164276f, 0.04540016129612923f, 0.0f, 0.0f, 0.03492319956421852f, 0.04540016129612923f, 0.003492319956421852f, 0.0f, 0.010476960800588131f, 0.0f, 0.0f, 0.15890055894851685f, 0.0890541598200798f, 0.0f, 0.0f, 0.0f, 0.0785771980881691f, 0.0f, 0.0f, 0.13270816206932068f, 0.0f, 0.0f, 0.0f, 0.0f, 0.0f, 0.0f, 0.0f, 0.0f, 0.0f, 0.0f, 0.0f, 0.0f, 0.19033144414424896f, 0.055877119302749634f, 0.0f, 0.0f, 0.022700080648064613f, 0.041907843202352524f, 0.010476960800588131f, 0.0f, 0.01571544073522091f, 0.0f, 0.0f, 0.15191592276096344f, 0.09429264068603516f, 0.0f, 0.0f, 0.0f, 0.07333871722221375f, 0.0f, 0.0f, 0.12397736310958862f, 0.0f, 0.0f, 0.0f, 0.0f, 0.001746159978210926f, 0.0f, 0.0f, 0.0f, 0.0f, 0.0f, 0.0f, 0.0f, 0.1606467217206955f, 0.024446239694952965f, 0.0f, 0.0f, 0.01746159978210926f, 0.05238480120897293f, 0.06111560016870499f, 0.0f, 0.003492319956421852f, 0.0f, 0.0f, 0.14143896102905273f, 0.11350040137767792f, 0.0f, 0.0f, 0.0f, 0.11350040137767792f, 0.0f, 0.0f, 0.1606467217206955f, 0.0f, 0.0f, 0.0f, 0.00873079989105463f, 0.001746159978210926f, 0.0f, 0.0f, 0.0052384804002940655f, 0.019207758828997612f, 0.0f, 0.0f, 0.0f, 0.17286984622478485f, 0.0750848799943924f, 0.0f, 0.0f, 0.06111560016870499f, 0.03492319956421852f, 0.043654002249240875f, 0.0f, 0.001746159978210926f, 0.0f, 0.0f, 0.1711236834526062f, 0.13794663548469543f, 0.0f, 0.0f, 0.0f, 0.059369441121816635f, 0.0f, 0.0f, 0.1501697599887848f, 0.0f, 0.0f, 0.0f, 0.022700080648064613f, 0.0f, 0.0f, 0.003492319956421852f, 0.019207758828997612f, 0.07333871722221375f, 0.0f, 0.0f, 0.0f, 0.23398543894290924f, 0.11699271947145462f, 0.0f, 0.0f, 0.0785771980881691f, 0.012223119847476482f, 0.0f, 0.0f, 0.026192400604486465f, 0.0f, 0.0f, 0.1501697599887848f, 0.09953112155199051f, 0.03317704051733017f, 0.0f, 0.0f, 0.01571544073522091f, 0.0f, 0.0f, 0.18683911859989166f, 0.0f, 0.0f, 0.0f, 0.038415517657995224f, 0.0f, 0.01571544073522091f, 0.0f, 0.07159256190061569f, 0.05238480120897293f, 0.0f, 0.0f, 0.0f, 0.21827000379562378f, 0.1816006451845169f, 0.0f, 0.001746159978210926f, 0.00873079989105463f, 0.0f, 0.001746159978210926f, 0.0f, 0.0f, 0.0f, 0.0f, 0.19731608033180237f, 0.13969279825687408f, 0.00873079989105463f, 0.0f, 0.0f, 0.06635408103466034f, 0.0f, 0.0f, 0.22700080275535583f, 0.0f, 0.0f, 0.0f, 0.029684720560908318f, 0.0052384804002940655f, 0.00873079989105463f, 0.0f, 0.03317704051733017f, 0.05413096025586128f, 0.0f, 0.0f, 0.0f, 0.20430071651935577f, 0.13445432484149933f, 0.0f, 0.0f, 0.03317704051733017f, 0.029684720560908318f, 0.03317704051733017f, 0.0f, 0.003492319956421852f, 0.0f, 0.0f, 0.1920776069164276f, 0.14842359721660614f, 0.0f, 0.0f, 0.0f, 0.11350040137767792f, 0.0f, 0.001746159978210926f, 0.2322392761707306f, 0.0f, 0.0f, 0.0f, 0.001746159978210926f, 0.0f, 0.0f, 0.0f, 0.0f, 0.020953921601176262f, 0.0f, 0.0f, 0.0f, 0.20255456864833832f, 0.08032336086034775f, 0.0f, 0.0f, 0.026192400604486465f, 0.059369441121816635f, 0.020953921601176262f, 0.0f, 0.019207758828997612f, 0.0f, 0.0f, 0.1746160089969635f, 0.12572352588176727f, 0.0f, 0.0f, 0.0f, 0.10127728432416916f, 0.0f, 0.0f, 0.17985448241233826f, 0.0f, 0.0f, 0.0f, 0.0f, 0.001746159978210926f, 0.0f, 0.0f, 0.0f, 0.0f, 0.0f, 0.0f, 0.0f, 0.1711236834526062f, 0.024446239694952965f, 0.0f, 0.0f, 0.006984639912843704f, 0.06286176294088364f, 0.03317704051733017f, 0.0f, 0.024446239694952965f, 0.0f, 0.0f, 0.14842359721660614f, 0.10826192051172256f, 0.0f, 0.0f, 0.0f, 0.10651575773954391f, 0.0f, 0.0f, 0.14842359721660614f, 0.0f, 0.0f, 0.0f, 0.0f, 0.001746159978210926f, 0.0f, 0.0f, 0.0f, 0.0f, 0.0f, 0.0f, 0.0f, 0.1746160089969635f, 0.059369441121816635f, 0.0f, 0.0f, 0.04889247938990593f, 0.04540016129612923f, 0.022700080648064613f, 0.0f, 0.010476960800588131f, 0.0f, 0.0f, 0.1711236834526062f, 0.11699271947145462f, 0.0f, 0.0f, 0.0f, 0.09080032259225845f, 0.0f, 0.0f, 0.12921583652496338f, 0.0f, 0.0f, 0.0f, 0.0f, 0.0f, 0.0f, 0.0f, 0.0052384804002940655f, 0.010476960800588131f, 0.0f, 0.0f, 0.0f, 0.23747776448726654f, 0.0750848799943924f, 0.0f, 0.0f, 0.06810023635625839f, 0.07159256190061569f, 0.003492319956421852f, 0.0f, 0.03143088147044182f, 0.013969279825687408f, 0.0f, 0.19033144414424896f, 0.10826192051172256f, 0.0f, 0.0f, 0.0f, 0.05063864216208458f, 0.0f, 0.0f, 0.1746160089969635f, 0.0f, 0.0f, 0.0f, 0.0f, 0.0052384804002940655f, 0.019207758828997612f, 0.0f, 0.003492319956421852f, 0.0f, 0.0f, 0.0f, 0.0f, 0.21128536760807037f, 0.06111560016870499f, 0.0f, 0.0f, 0.05413096025586128f, 0.06460791826248169f, 0.022700080648064613f, 0.0f, 0.010476960800588131f, 0.003492319956421852f, 0.0f, 0.19731608033180237f, 0.11350040137767792f, 0.0f, 0.0f, 0.0f, 0.06810023635625839f, 0.0f, 0.0f, 0.1850929707288742f, 0.0f, 0.0f, 0.0f, 0.0f, 0.006984639912843704f, 0.010476960800588131f, 0.0f, 0.00873079989105463f, 0.012223119847476482f, 0.0f, 0.0f, 0.0f, 0.1781083196401596f, 0.06286176294088364f, 0.0f, 0.0f, 0.0925464853644371f, 0.06810023635625839f, 0.05238480120897293f, 0.0f, 0.019207758828997612f, 0.012223119847476482f, 0.0f, 0.19731608033180237f, 0.13620047271251678f, 0.0f, 0.0f, 0.0f, 0.05413096025586128f, 0.0f, 0.0f, 0.1571543961763382f, 0.0f, 0.0f, 0.0f, 0.012223119847476482f, 0.0f, 0.0f, 0.012223119847476482f, 0.0f, 0.057623278349637985f, 0.0f, 0.0f, 0.0f, 0.15540823340415955f, 0.04714632034301758f, 0.0f, 0.0f, 0.0960388034582138f, 0.06111560016870499f, 0.04540016129612923f, 0.0f, 0.06810023635625839f, 0.013969279825687408f, 0.001746159978210926f, 0.14493127167224884f, 0.12223120033740997f, 0.001746159978210926f, 0.0052384804002940655f, 0.0f, 0.026192400604486465f, 0.0f, 0.0052384804002940655f, 0.14842359721660614f, 0.0f, 0.0f, 0.001746159978210926f, 0.0052384804002940655f, 0.01571544073522091f, 0.003492319956421852f, 0.003492319956421852f, 0.041907843202352524f, 0.026192400604486465f, 0.0f, 0.0f, 0.0f, 0.1676313728094101f, 0.11000808328390121f, 0.0f, 0.0f, 0.03666935861110687f, 0.0f, 0.024446239694952965f, 0.0f, 0.013969279825687408f, 0.0f, 0.0f, 0.1781083196401596f, 0.11350040137767792f, 0.0f, 0.0f, 0.0f, 0.0820695161819458f, 0.0f, 0.0f, 0.1536620706319809f, 0.0f, 0.0f, 0.0f, 0.0f, 0.03317704051733017f, 0.0f, 0.0f, 0.019207758828997612f, 0.01571544073522091f, 0.0f, 0.0f, 0.0f, 0.19556991755962372f, 0.10302343964576721f, 0.0f, 0.0f, 0.012223119847476482f, 0.041907843202352524f, 0.019207758828997612f, 0.0f, 0.0052384804002940655f, 0.0f, 0.0f, 0.17286984622478485f, 0.11350040137767792f, 0.0f, 0.0f, 0.0f, 0.08730800449848175f, 0.0f, 0.0f, 0.19731608033180237f, 0.0f, 0.0f, 0.0f, 0.0f, 0.027938559651374817f, 0.012223119847476482f, 0.0f, 0.0f, 0.001746159978210926f, 0.0f, 0.0f, 0.0f, 0.20779304206371307f, 0.06111560016870499f, 0.0f, 0.0f, 0.03317704051733017f, 0.043654002249240875f, 0.013969279825687408f, 0.0f, 0.0f, 0.0f, 0.0f, 0.18334680795669556f, 0.09778495877981186f, 0.0f, 0.0f, 0.0f, 0.0890541598200798f, 0.0f, 0.0f, 0.1816006451845169f, 0.0f, 0.0f, 0.0f, 0.0f, 0.0f, 0.0f, 0.0f, 0.0f, 0.022700080648064613f, 0.0f, 0.0f, 0.0f, 0.19556991755962372f, 0.059369441121816635f, 0.0f, 0.0f, 0.043654002249240875f, 0.040161680430173874f, 0.03317704051733017f, 0.0f, 0.0f, 0.0f, 0.0f, 0.1501697599887848f, 0.0960388034582138f, 0.0f, 0.0f, 0.0f, 0.07683103531599045f, 0.0f, 0.0f, 0.18334680795669556f, 0.0f, 0.0f, 0.0f, 0.03143088147044182f, 0.0f, 0.0f, 0.019207758828997612f, 0.0f, 0.040161680430173874f, 0.0f, 0.0f, 0.0f, 0.16937752068042755f, 0.027938559651374817f, 0.0f, 0.0f, 0.09080032259225845f, 0.03492319956421852f, 0.05413096025586128f, 0.0f, 0.013969279825687408f, 0.0f, 0.0f, 0.1571543961763382f, 0.11175423860549927f, 0.003492319956421852f, 0.0052384804002940655f, 0.0f, 0.08381568640470505f, 0.0f, 0.0f, 0.1641390323638916f, 0.0f, 0.0f, 0.001746159978210926f, 0.04889247938990593f, 0.0f, 0.0f, 0.012223119847476482f, 0.043654002249240875f, 0.040161680430173874f, 0.0f, 0.0f, 0.0f, 0.1816006451845169f, 0.0890541598200798f, 0.0f, 0.0f, 0.0855618417263031f, 0.0f, 0.027938559651374817f, 0.0f, 0.0052384804002940655f, 0.0f, 0.0f, 0.2357316017150879f, 0.14493127167224884f, 0.0f, 0.0f, 0.0f, 0.03492319956421852f, 0.0f, 0.0f, 0.14842359721660614f, 0.0f, 0.0f, 0.0f, 0.04540016129612923f, 0.0f, 0.010476960800588131f, 0.001746159978210926f, 0.040161680430173874f, 0.022700080648064613f, 0.0f, 0.0f, 0.0f, 0.20430071651935577f, 0.07159256190061569f, 0.0f, 0.0f, 0.07683103531599045f, 0.013969279825687408f, 0.010476960800588131f, 0.0f, 0.03666935861110687f, 0.0f, 0.0f, 0.20604687929153442f, 0.09080032259225845f, 0.0f, 0.0f, 0.0f, 0.06984639912843704f, 0.0f, 0.0f, 0.1501697599887848f, 0.0f, 0.0f, 0.0f, 0.0f, 0.006984639912843704f, 0.026192400604486465f};
PI_L2 float L0_BIAS_GRAD_LAST [L0_OUT_CH] = {-0.4452707767486572f, 0.4452707767486572f};


